movie_id,vec_0,vec_1,vec_2,vec_3,vec_4,vec_5,vec_6,vec_7,vec_8,vec_9,vec_10,vec_11,vec_12,vec_13,vec_14,vec_15,vec_16,vec_17,vec_18,vec_19,vec_20,vec_21,vec_22,vec_23,vec_24,vec_25,vec_26,vec_27,vec_28,vec_29,vec_30,vec_31,vec_32,vec_33,vec_34,vec_35,vec_36,vec_37,vec_38,vec_39,vec_40,vec_41,vec_42,vec_43,vec_44,vec_45,vec_46,vec_47,vec_48,vec_49,vec_50,vec_51,vec_52,vec_53,vec_54,vec_55,vec_56,vec_57,vec_58,vec_59,vec_60,vec_61,vec_62,vec_63,vec_64,vec_65,vec_66,vec_67,vec_68,vec_69,vec_70,vec_71,vec_72,vec_73,vec_74,vec_75,vec_76,vec_77,vec_78,vec_79,vec_80,vec_81,vec_82,vec_83,vec_84,vec_85,vec_86,vec_87,vec_88,vec_89,vec_90,vec_91,vec_92,vec_93,vec_94,vec_95,vec_96,vec_97,vec_98,vec_99,vec_100,vec_101,vec_102,vec_103,vec_104,vec_105,vec_106,vec_107,vec_108,vec_109,vec_110,vec_111,vec_112,vec_113,vec_114,vec_115,vec_116,vec_117,vec_118,vec_119,vec_120,vec_121,vec_122,vec_123,vec_124,vec_125,vec_126,vec_127,vec_128,vec_129,vec_130,vec_131,vec_132,vec_133,vec_134,vec_135,vec_136,vec_137,vec_138,vec_139,vec_140,vec_141,vec_142,vec_143,vec_144,vec_145,vec_146,vec_147,vec_148,vec_149,vec_150,vec_151,vec_152,vec_153,vec_154,vec_155,vec_156,vec_157,vec_158,vec_159,vec_160,vec_161,vec_162,vec_163,vec_164,vec_165,vec_166,vec_167,vec_168,vec_169,vec_170,vec_171,vec_172,vec_173,vec_174,vec_175,vec_176,vec_177,vec_178,vec_179,vec_180,vec_181,vec_182,vec_183,vec_184,vec_185,vec_186,vec_187,vec_188,vec_189,vec_190,vec_191,vec_192,vec_193,vec_194,vec_195,vec_196,vec_197,vec_198,vec_199,vec_200,vec_201,vec_202,vec_203,vec_204,vec_205,vec_206,vec_207,vec_208,vec_209,vec_210,vec_211,vec_212,vec_213,vec_214,vec_215,vec_216,vec_217,vec_218,vec_219,vec_220,vec_221,vec_222,vec_223,vec_224,vec_225,vec_226,vec_227,vec_228,vec_229,vec_230,vec_231,vec_232,vec_233,vec_234,vec_235,vec_236,vec_237,vec_238,vec_239,vec_240,vec_241,vec_242,vec_243,vec_244,vec_245,vec_246,vec_247,vec_248,vec_249,vec_250,vec_251,vec_252,vec_253,vec_254,vec_255
tensor(1),-0.012093269,-0.0049982443,0.16480768,-0.020732865,-0.041123945,0.022087347,-0.020606428,0.050358124,-0.027621754,0.043813307,-0.04803125,0.13099952,-0.04784981,-0.024581455,0.066412374,-0.06408216,0.0008312124,0.02541964,-0.019024389,-0.024972126,-0.0015646135,-0.063863024,-0.024295442,-0.026991038,0.08959305,-0.04436641,-0.026985275,-0.033353485,-0.03443044,-0.032382973,0.06991345,0.09478235,0.050716415,-0.019084109,0.07291712,0.068301916,-0.0797745,0.06576876,-0.020964514,-0.054535303,-0.032570485,-0.022637835,0.20689917,0.014846027,-0.07462583,-0.019340266,-0.0360505,-0.029446019,0.06959542,0.068717666,-0.07386206,-0.03835178,-0.02304225,-0.083416305,-0.045905665,-0.05347059,0.005847398,-0.025736185,-0.009204071,-0.012785721,0.13183047,-0.02407804,-0.081838176,-0.058263283,0.12581453,0.17455593,-0.02053653,-0.037957754,0.009003753,-0.07550836,-0.076925665,-0.036721073,-0.023459865,-0.03556879,-0.03989523,-0.031536143,0.0984374,-0.080243275,-0.055368267,0.09450702,-0.033191353,-0.057707354,-0.020997135,-0.03411373,-0.058694564,-0.03862615,-0.04483284,-0.05669541,-0.046932984,-0.029480368,-0.0049974415,-0.024163188,-0.009607184,0.061125718,0.0033539068,-0.03808122,-0.01718522,-0.021944411,-0.023873132,-0.011682497,-0.08471334,-0.03375263,-0.006394839,-0.018537426,-0.013617008,-0.06791018,-0.0465433,0.06629378,-0.05169764,-0.03479934,-0.04818023,-0.033316396,-0.07363737,-0.010200232,-0.03968065,0.0829426,0.08202568,-0.058040943,-0.014458865,-0.010679184,0.031336226,-0.053243004,0.05015493,0.06941632,-0.01900862,-0.033948507,-0.03068393,-0.036590427,-0.02874444,-0.022621028,-0.031864725,-0.015893487,0.02949458,-0.0070824977,-0.09515019,0.18913963,0.010700263,0.0643841,-0.02235796,-0.04197476,0.11530186,-0.040999845,0.025513671,-0.059800483,-0.08225219,-0.09467618,-0.03169383,0.057837993,-0.0025819447,-0.049093693,0.00088462443,-0.057655357,-0.05881715,-0.0031796973,-0.015990043,-0.030146964,-0.02927922,-0.043527618,-0.012372917,0.068377845,-0.027062949,0.0070574014,-0.03787543,-0.0010615923,0.18142492,-0.023942528,-0.032220032,-0.03979009,-0.06762159,-0.034470335,0.018391088,-0.024346452,0.06536847,-0.03758567,0.116113745,-0.021322498,-0.09429793,-0.024638977,-0.03438978,-0.033995647,-0.0097187925,0.13999674,-0.041528255,-0.031971533,-0.041234285,-0.06811655,-0.049425364,-0.04181201,-0.09295942,-0.0060633365,-0.010132842,-0.011549216,-0.018512964,0.13670897,-0.036182456,-0.0388036,-0.028524105,-0.0041550365,-0.076199494,-0.028305303,0.033285633,0.10997252,-0.008393346,-0.05406975,0.011334808,-0.037531372,-0.04131334,-0.02667023,0.032508146,-0.009976069,-0.0402979,-0.035306554,-0.030108128,0.16649556,-0.0024124563,0.049895532,0.15955974,0.04530555,-0.04175009,-0.060903795,-0.012922831,-0.010236704,-0.024127081,-0.038119286,-0.030020872,-0.04170542,-0.022482168,-0.04574752,-0.039433844,-0.02506009,0.09455629,-0.026266098,0.04461724,0.06335613,-0.05109422,-0.05218565,-0.042767864,-0.060478367,-0.03852933,-0.0012916885,-0.005644787,-0.08129643,-0.037940614,0.13336197,-0.032536563,-0.057695843,-0.022210576,-0.03621507,-0.042707983,-0.07349008,-0.058942743,-0.03247384,0.014443005,-0.011948304,0.091282986,-0.010929053
tensor(2),-0.012086121,-0.0050046593,0.16483307,-0.020735683,-0.041121103,0.022085588,-0.020609576,0.050357834,-0.027612584,0.04380303,-0.048045278,0.13101725,-0.047849305,-0.02459139,0.06640258,-0.06407922,0.00082993926,0.025415922,-0.019017067,-0.024977341,-0.0015615686,-0.06386239,-0.024301913,-0.02699581,0.089593515,-0.04436744,-0.026990298,-0.033345617,-0.034433957,-0.032397896,0.06991854,0.094786584,0.05073055,-0.019082366,0.07291132,0.06830044,-0.07977645,0.06576468,-0.020968065,-0.054536995,-0.03256823,-0.022639664,0.20693016,0.01483805,-0.07462584,-0.019340597,-0.03604523,-0.029442942,0.06959234,0.0687152,-0.07386215,-0.038372926,-0.02303949,-0.083424196,-0.045917675,-0.05347514,0.0058518182,-0.025745207,-0.009199379,-0.012790986,0.13182577,-0.024075126,-0.081850566,-0.058272026,0.12581992,0.17457806,-0.020545334,-0.03795198,0.009005634,-0.07550904,-0.07692527,-0.036721725,-0.023456143,-0.035567794,-0.039902303,-0.03153817,0.09844558,-0.080255,-0.055369392,0.09451501,-0.033191733,-0.057701662,-0.02099301,-0.03412451,-0.058693912,-0.03862559,-0.04483249,-0.05669298,-0.0469414,-0.029493101,-0.0049951747,-0.024162862,-0.009605979,0.061132412,0.0033376217,-0.03808511,-0.017190458,-0.021941401,-0.023874218,-0.011684097,-0.08471696,-0.033753403,-0.006406691,-0.018535232,-0.013613128,-0.06791064,-0.046539083,0.066292726,-0.05169373,-0.034811758,-0.048180196,-0.03331006,-0.07364175,-0.01020383,-0.039675582,0.08294775,0.08202225,-0.058041506,-0.014452711,-0.010674847,0.031329483,-0.05325237,0.05016845,0.0694183,-0.019027507,-0.033945404,-0.03069392,-0.036596097,-0.02873592,-0.022632692,-0.031854652,-0.015892047,0.029499069,-0.0070874337,-0.09516303,0.18914923,0.010702707,0.06438634,-0.022371013,-0.041968632,0.11530246,-0.041001327,0.025499703,-0.059803776,-0.08224636,-0.094681725,-0.031703074,0.057827253,-0.002597752,-0.049097825,0.0008759494,-0.05765433,-0.05881811,-0.0031800605,-0.01598202,-0.03014815,-0.02927817,-0.043531828,-0.012386663,0.068386376,-0.027057445,0.0070665004,-0.037877873,-0.001073515,0.18144007,-0.023949321,-0.03222195,-0.039785497,-0.06762549,-0.034471475,0.018384567,-0.024354156,0.065381944,-0.037592527,0.11611338,-0.02131269,-0.09429501,-0.024648529,-0.0343824,-0.034008246,-0.009720802,0.14002278,-0.041531052,-0.03197477,-0.041233074,-0.0681222,-0.04942564,-0.041813307,-0.09296062,-0.0060750525,-0.010148043,-0.01155485,-0.01851387,0.13672586,-0.03617699,-0.03880469,-0.028525809,-0.0041615763,-0.076197416,-0.028306093,0.03327903,0.10997315,-0.008385673,-0.054071788,0.011322517,-0.037534717,-0.041309357,-0.02667062,0.032500982,-0.009968806,-0.040304348,-0.03532131,-0.030118786,0.16651417,-0.0024123732,0.04990529,0.15958348,0.045313224,-0.04175302,-0.060902357,-0.012928396,-0.010230075,-0.024129028,-0.038113866,-0.030028626,-0.04170342,-0.022487294,-0.04576633,-0.039444327,-0.02507157,0.094557166,-0.026254375,0.0446238,0.06336163,-0.051102947,-0.052180782,-0.042769555,-0.060477555,-0.03853193,-0.001306735,-0.005644046,-0.08130406,-0.037939392,0.13337004,-0.032532133,-0.057701245,-0.022210844,-0.03622023,-0.04272119,-0.07349847,-0.058940724,-0.032464627,0.014440421,-0.011943418,0.091291904,-0.010943399
tensor(3),-0.01210657,-0.004986378,0.16476059,-0.02072765,-0.04112926,0.02209063,-0.020600576,0.05035869,-0.027638733,0.043832343,-0.04800521,0.13096662,-0.047850747,-0.024562992,0.066430554,-0.06408765,0.0008335775,0.025426533,-0.019037997,-0.024962464,-0.0015702774,-0.0638642,-0.024283446,-0.02698222,0.0895922,-0.044364512,-0.026975965,-0.0333681,-0.03442396,-0.032355264,0.069904,0.09477457,0.05069015,-0.019087322,0.07292787,0.06830467,-0.07977088,0.065776385,-0.020957934,-0.054532204,-0.03257464,-0.022634443,0.20684168,0.014860814,-0.07462581,-0.019339666,-0.036060285,-0.029451719,0.06960119,0.06872223,-0.07386195,-0.03831254,-0.023047358,-0.08340168,-0.045883406,-0.05346217,0.0058391755,-0.025719402,-0.009212768,-0.01277597,0.13183922,-0.02408346,-0.08181526,-0.05824708,0.12580457,0.17451492,-0.020520207,-0.037968464,0.009000281,-0.07550713,-0.07692643,-0.036719862,-0.023466775,-0.03557064,-0.039882116,-0.03153237,0.09842218,-0.08022149,-0.05536613,0.0944922,-0.03319063,-0.057717904,-0.021004785,-0.034093726,-0.058695782,-0.038627133,-0.04483346,-0.056699924,-0.046917316,-0.029456772,-0.0050016493,-0.024163797,-0.009609401,0.06111336,0.003384104,-0.03807402,-0.017175501,-0.021950036,-0.02387107,-0.01167953,-0.08470661,-0.0337512,-0.0063728224,-0.018541543,-0.013624201,-0.06790936,-0.0465511,0.06629573,-0.051704906,-0.03477631,-0.048180327,-0.033328153,-0.07362928,-0.010193549,-0.03969009,0.08293301,0.08203204,-0.05803989,-0.014470303,-0.010687225,0.03134874,-0.053225674,0.05012985,0.069412634,-0.018973565,-0.033954248,-0.03066544,-0.03657993,-0.028760202,-0.022599354,-0.03188338,-0.015896192,0.029486246,-0.007073313,-0.09512633,0.18912183,0.010695728,0.064380005,-0.022333715,-0.041986145,0.11530076,-0.040997103,0.025539571,-0.059794337,-0.082263,-0.094665885,-0.0316767,0.057857953,-0.002552595,-0.049086012,0.0009007538,-0.05765724,-0.058815345,-0.0031790445,-0.016004967,-0.030144792,-0.029281173,-0.043519817,-0.012347465,0.06836201,-0.027073175,0.007040522,-0.03787086,-0.0010394529,0.18139684,-0.02392991,-0.032216504,-0.039798625,-0.06761436,-0.034468204,0.018403191,-0.024332114,0.06534353,-0.037572924,0.11611442,-0.0213407,-0.09430334,-0.02462125,-0.034403443,-0.033972263,-0.009715082,0.13994843,-0.041523065,-0.031965524,-0.041236497,-0.068106085,-0.04942483,-0.04180963,-0.09295723,-0.0060416088,-0.010104649,-0.011538718,-0.018511277,0.13667762,-0.03619263,-0.038801573,-0.028520957,-0.0041428977,-0.076203376,-0.028303845,0.03329788,0.10997137,-0.008407615,-0.054065995,0.011357621,-0.03752511,-0.041320737,-0.026669499,0.032521423,-0.009989584,-0.040285937,-0.035279166,-0.030088317,0.16646102,-0.0024125723,0.049877413,0.15951568,0.04529132,-0.041744664,-0.060906447,-0.012912463,-0.010248983,-0.02412348,-0.038129374,-0.03000646,-0.041709095,-0.022472652,-0.04571265,-0.039414417,-0.025038796,0.09455465,-0.026287848,0.044605087,0.063345924,-0.051077995,-0.052194715,-0.04276471,-0.060479894,-0.03852449,-0.0012637544,-0.0056461487,-0.08128223,-0.037942875,0.13334693,-0.03254477,-0.05768585,-0.022210108,-0.036205508,-0.04268349,-0.073474504,-0.058946487,-0.032490917,0.014447776,-0.011957329,0.09126645,-0.010902452
tensor(4),-0.012088308,-0.005002696,0.16482529,-0.020734819,-0.041121975,0.022086121,-0.020608611,0.050357927,-0.027615393,0.04380618,-0.048040975,0.13101181,-0.04784946,-0.024588343,0.06640558,-0.06408012,0.00083032995,0.02541706,-0.01901931,-0.024975743,-0.0015625027,-0.063862585,-0.02429993,-0.026994344,0.08959337,-0.04436712,-0.026988756,-0.033348028,-0.034432884,-0.032393325,0.06991698,0.09478529,0.05072622,-0.0190829,0.072913095,0.068300895,-0.079775855,0.06576593,-0.020966977,-0.054536473,-0.03256892,-0.022639103,0.20692062,0.014840497,-0.074625835,-0.0193405,-0.036046848,-0.029443879,0.06959328,0.06871595,-0.07386212,-0.03836644,-0.023040336,-0.08342178,-0.045913994,-0.05347375,0.0058504613,-0.02574244,-0.009200811,-0.012789371,0.1318272,-0.02407602,-0.08184677,-0.05826935,0.12581827,0.17457128,-0.020542633,-0.03795375,0.009005059,-0.07550883,-0.07692539,-0.03672152,-0.023457285,-0.0355681,-0.039900146,-0.031537548,0.09844306,-0.08025141,-0.05536905,0.09451257,-0.033191614,-0.057703413,-0.020994278,-0.034121208,-0.058694113,-0.038625762,-0.044832595,-0.056693725,-0.04693882,-0.0294892,-0.0049958713,-0.02416296,-0.009606346,0.06113036,0.0033426099,-0.03808392,-0.017188856,-0.021942323,-0.023873884,-0.0116836075,-0.08471585,-0.033753168,-0.0064030606,-0.018535908,-0.013614315,-0.06791051,-0.04654038,0.066293046,-0.051694922,-0.03480795,-0.048180208,-0.033312,-0.073640406,-0.010202726,-0.039677136,0.08294617,0.08202329,-0.058041327,-0.0144545995,-0.0106761735,0.031331547,-0.0532495,0.05016431,0.0694177,-0.019021718,-0.033946358,-0.030690858,-0.03659436,-0.028738532,-0.022629118,-0.031857736,-0.015892489,0.029497694,-0.0070859212,-0.0951591,0.18914628,0.010701957,0.06438565,-0.02236701,-0.041970514,0.11530229,-0.041000877,0.025503986,-0.059802767,-0.08224815,-0.094680026,-0.03170025,0.057830542,-0.00259291,-0.049096562,0.0008786104,-0.05765464,-0.058817815,-0.0031799488,-0.01598448,-0.03014779,-0.029278494,-0.04353054,-0.01238245,0.06838376,-0.027059134,0.007063713,-0.03787712,-0.0010698587,0.18143544,-0.023947239,-0.032221362,-0.0397869,-0.06762429,-0.034471128,0.018386565,-0.024351798,0.065377824,-0.03759042,0.1161135,-0.021315696,-0.09429591,-0.0246456,-0.034384664,-0.034004383,-0.009720187,0.1400148,-0.0415302,-0.031973775,-0.041233443,-0.068120465,-0.049425554,-0.041812908,-0.09296025,-0.006071463,-0.010143379,-0.011553122,-0.018513594,0.13672069,-0.036178663,-0.038804363,-0.028525285,-0.004159574,-0.07619804,-0.02830585,0.033281054,0.109972954,-0.008388025,-0.05407116,0.011326285,-0.03753369,-0.04131058,-0.026670497,0.03250318,-0.00997103,-0.040302373,-0.035316788,-0.030115519,0.16650847,-0.0024123956,0.049902298,0.1595762,0.04531087,-0.041752126,-0.0609028,-0.01292669,-0.010232107,-0.024128431,-0.038115527,-0.03002625,-0.041704033,-0.022485726,-0.04576057,-0.039441116,-0.025068054,0.0945569,-0.026257968,0.044621795,0.063359946,-0.05110027,-0.052182272,-0.04276904,-0.060477808,-0.038531132,-0.0013021249,-0.005644275,-0.08130172,-0.037939772,0.13336757,-0.03253349,-0.05769959,-0.022210762,-0.03621865,-0.042717144,-0.0734959,-0.058941342,-0.03246745,0.014441219,-0.011944919,0.09128917,-0.010939003
tensor(5),-0.012109208,-0.0049840193,0.16475123,-0.020726612,-0.04113032,0.02209128,-0.020599399,0.050358806,-0.027642101,0.043836124,-0.048000023,0.13096008,-0.04785093,-0.024559326,0.066434175,-0.06408875,0.00083403895,0.0254279,-0.0190407,-0.024960535,-0.0015713996,-0.06386444,-0.024281062,-0.026980456,0.08959204,-0.044364136,-0.026974116,-0.03337101,-0.03442268,-0.03234975,0.06990212,0.09477301,0.05068493,-0.019087955,0.07293001,0.06830522,-0.079770155,0.065777905,-0.020956634,-0.054531585,-0.032575455,-0.022633769,0.20683023,0.0148637565,-0.07462581,-0.019339547,-0.036062233,-0.02945285,0.06960234,0.06872314,-0.07386193,-0.038304735,-0.023048375,-0.083398774,-0.045878984,-0.05346049,0.0058375336,-0.02571606,-0.009214491,-0.012774036,0.13184094,-0.024084529,-0.081810705,-0.058243852,0.12580259,0.17450675,-0.020516962,-0.03797059,0.008999601,-0.07550687,-0.07692658,-0.036719613,-0.023468139,-0.035571013,-0.03987951,-0.031531613,0.09841915,-0.08021716,-0.055365704,0.09448926,-0.03319048,-0.05772,-0.021006303,-0.034089763,-0.058696017,-0.038627334,-0.044833586,-0.05670082,-0.046914198,-0.029452078,-0.0050024837,-0.024163911,-0.009609846,0.0611109,0.0033901036,-0.038072594,-0.017173564,-0.021951161,-0.023870658,-0.011678945,-0.08470528,-0.03375091,-0.0063684415,-0.018542359,-0.013625635,-0.067909196,-0.046552658,0.066296116,-0.051706344,-0.03477173,-0.04818035,-0.033330493,-0.073627666,-0.010192216,-0.039691962,0.08293109,0.0820333,-0.058039673,-0.014472587,-0.010688825,0.031351224,-0.05322223,0.05012486,0.0694119,-0.018966602,-0.033955388,-0.030661771,-0.036577843,-0.028763339,-0.022595042,-0.03188709,-0.015896732,0.02948459,-0.00707148,-0.09512158,0.18911828,0.01069482,0.06437919,-0.022328895,-0.041988414,0.11530055,-0.040996566,0.025544722,-0.059793115,-0.08226515,-0.094663836,-0.031673297,0.05786191,-0.0025467714,-0.049084485,0.00090396707,-0.05765762,-0.05881498,-0.0031789183,-0.01600793,-0.030144366,-0.02928156,-0.04351826,-0.012342414,0.06835887,-0.027075212,0.00703717,-0.037869945,-0.001035044,0.18139127,-0.02392741,-0.032215804,-0.039800316,-0.067612916,-0.03446779,0.018405605,-0.02432926,0.06533857,-0.037570387,0.11611456,-0.021344319,-0.09430441,-0.024617726,-0.03440616,-0.033967607,-0.009714343,0.1399388,-0.041522037,-0.031964336,-0.04123694,-0.068104,-0.049424723,-0.041809157,-0.09295678,-0.006037295,-0.01009904,-0.011536632,-0.018510947,0.1366714,-0.03619465,-0.03880117,-0.02852033,-0.0041404846,-0.07620414,-0.02830355,0.03330031,0.109971136,-0.008410451,-0.05406525,0.01136216,-0.037523862,-0.04132221,-0.02666935,0.032524068,-0.0099922735,-0.040283553,-0.03527372,-0.030084368,0.16645415,-0.0024125958,0.04987381,0.1595069,0.045288496,-0.041743584,-0.060906976,-0.0129104,-0.010251429,-0.024122767,-0.038131375,-0.030003594,-0.04170984,-0.022470761,-0.045705725,-0.039410554,-0.025034558,0.094554305,-0.026292168,0.044602677,0.063343905,-0.051074766,-0.052196514,-0.042764094,-0.06048021,-0.038523525,-0.0012582038,-0.005646417,-0.08127939,-0.037943333,0.13334394,-0.032546405,-0.05768386,-0.022210019,-0.03620362,-0.042678617,-0.0734714,-0.058947228,-0.032494307,0.014448726,-0.011959131,0.09126317,-0.010897164
tensor(6),-0.0120973345,-0.0049946154,0.16479328,-0.02073127,-0.04112557,0.022088345,-0.020604637,0.0503583,-0.027626945,0.04381913,-0.048023302,0.13098946,-0.0478501,-0.02457581,0.066417925,-0.06408384,0.0008319402,0.025421746,-0.019028544,-0.02496917,-0.0015663407,-0.06386338,-0.024291772,-0.02698834,0.0895928,-0.04436583,-0.026982425,-0.033357948,-0.034428462,-0.032374498,0.06991057,0.094779976,0.05070839,-0.01908509,0.0729204,0.068302765,-0.07977338,0.06577109,-0.020962497,-0.05453435,-0.03257176,-0.022636797,0.20688158,0.01485054,-0.07462582,-0.019340087,-0.036053486,-0.02944776,0.06959717,0.06871907,-0.07386202,-0.03833979,-0.023043815,-0.08341183,-0.045898866,-0.05346802,0.0058448873,-0.025731059,-0.009206729,-0.012782735,0.13183314,-0.02407969,-0.08183116,-0.058258325,0.12581149,0.1745434,-0.020531546,-0.03796102,0.0090027,-0.07550798,-0.076925896,-0.036720697,-0.023461973,-0.03556935,-0.039891206,-0.031534992,0.09843276,-0.08023661,-0.05536762,0.09450248,-0.033191133,-0.057710573,-0.02099947,-0.034107618,-0.058694936,-0.038626455,-0.044833034,-0.05669678,-0.046928212,-0.029473145,-0.004998725,-0.024163375,-0.009607866,0.06112194,0.0033631418,-0.038079023,-0.017182244,-0.021946121,-0.023872508,-0.011681583,-0.08471127,-0.03375219,-0.0063881204,-0.018538678,-0.0136192,-0.06790993,-0.046545684,0.06629438,-0.051699862,-0.034792297,-0.048180252,-0.033319995,-0.07363489,-0.010198193,-0.03968353,0.08293966,0.082027614,-0.05804062,-0.014462359,-0.01068164,0.03134005,-0.0532377,0.050147265,0.06941518,-0.018997898,-0.03395026,-0.030678278,-0.036587216,-0.028749265,-0.022614408,-0.031870425,-0.015894307,0.029492036,-0.0070796926,-0.0951429,0.18913418,0.010698875,0.06438285,-0.022350553,-0.041978233,0.11530152,-0.040999006,0.025521591,-0.059798613,-0.08225549,-0.09467304,-0.031688593,0.05784409,-0.0025729858,-0.04909134,0.0008895473,-0.05765594,-0.058816597,-0.003179498,-0.015994603,-0.030146299,-0.029279813,-0.043525226,-0.012365129,0.06837302,-0.02706607,0.007052241,-0.037874028,-0.001054829,0.18141635,-0.023938682,-0.032218948,-0.039792694,-0.06761937,-0.03446968,0.018394787,-0.024342071,0.065360844,-0.03758178,0.11611395,-0.02132805,-0.094299585,-0.024633562,-0.034393962,-0.033988506,-0.009717664,0.13998199,-0.04152667,-0.031969693,-0.041234963,-0.06811334,-0.0494252,-0.04181128,-0.09295875,-0.0060566887,-0.010124231,-0.011546014,-0.018512446,0.13669938,-0.036185566,-0.03880298,-0.028523136,-0.0041513336,-0.07620068,-0.028304856,0.033289388,0.10997217,-0.008397708,-0.054068603,0.011341768,-0.03752947,-0.041315597,-0.026670005,0.032512207,-0.009980201,-0.040294256,-0.035298184,-0.030102078,0.166485,-0.0024125017,0.04989,0.15954627,0.045301206,-0.04174843,-0.06090461,-0.012919676,-0.010240451,-0.024125975,-0.038122367,-0.030016469,-0.04170654,-0.02247926,-0.04573686,-0.039427903,-0.025053581,0.09455578,-0.026272753,0.044613525,0.063353,-0.051089264,-0.05218842,-0.0427669,-0.06047882,-0.038527854,-0.0012831651,-0.005645208,-0.08129209,-0.037941307,0.13335738,-0.03253907,-0.057692785,-0.022210425,-0.036212154,-0.04270049,-0.07348532,-0.058943883,-0.032479066,0.014444468,-0.011951068,0.09127794,-0.010920917
tensor(7),-0.012112253,-0.0049812933,0.16474041,-0.020725414,-0.041131545,0.022092031,-0.020598058,0.050358936,-0.027645998,0.043840483,-0.047994033,0.1309525,-0.047851134,-0.024555087,0.06643836,-0.06409001,0.00083456514,0.02542948,-0.019043824,-0.024958307,-0.0015727007,-0.06386471,-0.024278307,-0.026978422,0.089591846,-0.0443637,-0.026971977,-0.033374365,-0.03442119,-0.03234339,0.06989996,0.094771236,0.05067888,-0.019088697,0.07293248,0.06830585,-0.07976934,0.065779656,-0.02095513,-0.05453087,-0.0325764,-0.02263299,0.206817,0.0148671605,-0.074625805,-0.019339409,-0.03606448,-0.02945416,0.06960368,0.06872419,-0.0738619,-0.038295716,-0.023049545,-0.08339542,-0.045873873,-0.053458557,0.005835641,-0.025712209,-0.00921648,-0.012771802,0.13184294,-0.024085788,-0.08180545,-0.05824013,0.12580031,0.17449734,-0.020513205,-0.03797305,0.008998806,-0.07550659,-0.07692677,-0.036719333,-0.02346972,-0.03557144,-0.03987649,-0.03153074,0.09841566,-0.08021216,-0.055365205,0.09448585,-0.03319032,-0.057722427,-0.021008052,-0.034085177,-0.058696292,-0.038627557,-0.04483372,-0.05670186,-0.04691059,-0.029446658,-0.0050034504,-0.024164056,-0.009610352,0.061108068,0.003397027,-0.038070936,-0.017171333,-0.021952458,-0.023870183,-0.011678271,-0.08470374,-0.03375059,-0.0063633863,-0.018543305,-0.013627293,-0.067909,-0.046554454,0.06629656,-0.051708013,-0.03476644,-0.04818038,-0.033333186,-0.0736258,-0.010190676,-0.039694138,0.08292887,0.08203477,-0.058039427,-0.0144752115,-0.010690665,0.031354096,-0.05321825,0.050119102,0.06941107,-0.018958552,-0.033956703,-0.030657524,-0.036575437,-0.028766964,-0.022590054,-0.031891376,-0.015897352,0.029482678,-0.0070693605,-0.09511609,0.1891142,0.010693772,0.06437826,-0.022323333,-0.041991036,0.1153003,-0.04099594,0.02555067,-0.059791703,-0.082267635,-0.094661474,-0.031669367,0.057866495,-0.0025400287,-0.049082723,0.0009076691,-0.057658054,-0.058814555,-0.003178774,-0.016011357,-0.030143868,-0.029282015,-0.043516476,-0.0123365745,0.06835522,-0.027077565,0.007033295,-0.037868895,-0.0010299534,0.18138483,-0.02392451,-0.032214995,-0.039802276,-0.06761126,-0.034467302,0.018408384,-0.024325967,0.065332845,-0.03756745,0.11611471,-0.021348499,-0.09430566,-0.02461366,-0.034409303,-0.03396224,-0.009713475,0.13992772,-0.041520838,-0.031962965,-0.04123745,-0.0681016,-0.049424604,-0.04180861,-0.092956275,-0.0060323197,-0.010092566,-0.011534216,-0.018510567,0.13666421,-0.036196977,-0.038800694,-0.028519612,-0.004137699,-0.07620503,-0.028303212,0.03330311,0.10997087,-0.008413726,-0.054064386,0.011367407,-0.03752242,-0.041323915,-0.026669184,0.032527123,-0.00999537,-0.040280797,-0.035267435,-0.030079816,0.16644622,-0.002412621,0.04986965,0.15949678,0.045285225,-0.041742336,-0.06090758,-0.012908008,-0.010254258,-0.024121946,-0.03813369,-0.030000284,-0.041710693,-0.022468572,-0.04569773,-0.039406087,-0.025029665,0.09455393,-0.026297156,0.044599894,0.06334157,-0.05107104,-0.052198604,-0.042763375,-0.060480583,-0.038522415,-0.0012517851,-0.005646739,-0.08127612,-0.037943855,0.13334048,-0.032548286,-0.057681575,-0.02220992,-0.036201425,-0.042673,-0.073467806,-0.058948096,-0.032498233,0.014449822,-0.011961198,0.09125936,-0.010891055
tensor(8),-0.012093169,-0.004998335,0.16480803,-0.020732908,-0.041123904,0.02208732,-0.020606473,0.05035812,-0.027621627,0.04381316,-0.048031457,0.13099977,-0.0478498,-0.024581593,0.06641223,-0.064082116,0.00083119376,0.025419587,-0.019024283,-0.024972199,-0.0015645726,-0.06386302,-0.024295531,-0.026991101,0.08959306,-0.04436642,-0.026985347,-0.033353373,-0.03443049,-0.03238318,0.06991352,0.09478241,0.05071661,-0.019084087,0.072917044,0.0683019,-0.07977453,0.065768704,-0.020964565,-0.054535326,-0.032570455,-0.022637863,0.20689958,0.014845913,-0.074625835,-0.01934027,-0.036050424,-0.029445978,0.06959538,0.068717636,-0.07386206,-0.03835208,-0.023042213,-0.08341642,-0.045905836,-0.053470653,0.0058474606,-0.025736304,-0.009204006,-0.012785791,0.1318304,-0.024077998,-0.081838354,-0.058263406,0.12581462,0.17455623,-0.020536656,-0.037957676,0.009003779,-0.07550837,-0.076925665,-0.03672108,-0.02345981,-0.03556877,-0.039895326,-0.03153617,0.09843752,-0.08024344,-0.055368282,0.09450713,-0.03319136,-0.057707272,-0.020997077,-0.034113884,-0.058694556,-0.038626134,-0.044832833,-0.056695372,-0.046933103,-0.029480552,-0.0049974117,-0.024163187,-0.009607166,0.061125815,0.0033536777,-0.038081277,-0.017185291,-0.02194437,-0.023873143,-0.011682522,-0.084713385,-0.033752646,-0.0063950103,-0.018537395,-0.013616953,-0.067910194,-0.04654324,0.06629377,-0.051697582,-0.034799512,-0.04818023,-0.033316307,-0.07363743,-0.010200285,-0.039680574,0.082942665,0.082025625,-0.05804095,-0.014458779,-0.010679124,0.03133613,-0.053243134,0.050155126,0.069416344,-0.019008884,-0.033948462,-0.030684067,-0.03659051,-0.028744318,-0.022621196,-0.031864583,-0.015893467,0.02949464,-0.0070825685,-0.095150374,0.18913975,0.010700297,0.06438413,-0.022358147,-0.041974667,0.11530186,-0.040999867,0.025513474,-0.059800528,-0.08225211,-0.094676256,-0.03169397,0.057837844,-0.0025821691,-0.049093753,0.0008844987,-0.057655342,-0.058817163,-0.0031797038,-0.015989931,-0.03014698,-0.02927921,-0.04352768,-0.012373115,0.068377964,-0.02706287,0.007057527,-0.037875466,-0.0010617599,0.18142514,-0.023942623,-0.032220062,-0.039790023,-0.06762165,-0.03447035,0.018390998,-0.024346557,0.06536867,-0.037585765,0.116113745,-0.02132236,-0.09429789,-0.024639111,-0.034389675,-0.033995822,-0.009718822,0.1399971,-0.041528296,-0.031971578,-0.041234266,-0.068116635,-0.049425367,-0.04181203,-0.092959434,-0.0060634986,-0.010133058,-0.011549296,-0.018512975,0.1367092,-0.03618238,-0.038803615,-0.028524129,-0.004155127,-0.076199464,-0.028305316,0.033285543,0.10997254,-0.008393236,-0.054069776,0.011334637,-0.037531417,-0.04131328,-0.02667024,0.032508045,-0.009975969,-0.040297993,-0.03530676,-0.030108277,0.1664958,-0.0024124547,0.049895674,0.15956007,0.045305654,-0.04175013,-0.060903773,-0.012922909,-0.010236609,-0.024127105,-0.03811921,-0.030020982,-0.04170539,-0.022482239,-0.04574778,-0.03943399,-0.025060248,0.0945563,-0.026265932,0.044617333,0.063356206,-0.051094342,-0.052185584,-0.04276789,-0.060478352,-0.038529363,-0.0012919027,-0.005644778,-0.08129653,-0.03794059,0.13336207,-0.0325365,-0.057695918,-0.022210581,-0.03621514,-0.04270817,-0.0734902,-0.058942717,-0.032473713,0.014442969,-0.011948232,0.09128311,-0.010929258
tensor(9),-0.0120986905,-0.0049934094,0.16478851,-0.020730738,-0.041126106,0.02208868,-0.020604037,0.050358362,-0.027628671,0.043821063,-0.04802066,0.13098612,-0.04785019,-0.024573937,0.066419765,-0.064084396,0.0008321814,0.025422446,-0.019029928,-0.024968196,-0.0015669176,-0.0638635,-0.024290552,-0.026987446,0.08959271,-0.04436563,-0.026981477,-0.03335943,-0.034427803,-0.032371685,0.0699096,0.09477918,0.05070573,-0.019085415,0.07292149,0.06830304,-0.07977301,0.06577186,-0.020961825,-0.054534033,-0.032572184,-0.022636449,0.20687574,0.0148520395,-0.07462582,-0.01934002,-0.036054477,-0.029448338,0.06959776,0.06871953,-0.07386201,-0.0383358,-0.02304433,-0.083410345,-0.0458966,-0.05346717,0.0058440585,-0.025729353,-0.009207614,-0.012781745,0.13183403,-0.024080241,-0.08182883,-0.05825668,0.12581047,0.17453924,-0.020529889,-0.03796211,0.009002347,-0.07550786,-0.07692597,-0.036720574,-0.023462676,-0.03556954,-0.03988988,-0.031534616,0.098431215,-0.08023439,-0.055367406,0.094500974,-0.033191055,-0.057711646,-0.021000242,-0.03410558,-0.05869507,-0.03862656,-0.044833094,-0.056697242,-0.04692662,-0.029470744,-0.0049991515,-0.024163434,-0.0096080955,0.061120685,0.003366217,-0.038078293,-0.01718126,-0.021946687,-0.023872301,-0.011681279,-0.08471058,-0.033752043,-0.0063858777,-0.018539097,-0.0136199305,-0.06790985,-0.046546478,0.06629457,-0.0517006,-0.034789953,-0.048180263,-0.033321183,-0.07363407,-0.010197515,-0.03968449,0.082938686,0.082028255,-0.058040515,-0.014463518,-0.010682459,0.031341325,-0.053235933,0.05014471,0.0694148,-0.01899434,-0.03395085,-0.0306764,-0.036586158,-0.02875087,-0.022612203,-0.031872317,-0.01589458,0.029491188,-0.0070787603,-0.09514048,0.18913238,0.010698415,0.064382434,-0.022348095,-0.04197939,0.115301415,-0.040998723,0.025524229,-0.059797987,-0.082256585,-0.09467199,-0.031686857,0.05784612,-0.0025700033,-0.04909056,0.0008911872,-0.05765613,-0.05881641,-0.0031794342,-0.015996123,-0.030146077,-0.02928001,-0.04352443,-0.01236254,0.068371415,-0.02706711,0.00705053,-0.03787356,-0.0010525826,0.1814135,-0.0239374,-0.032218594,-0.039793566,-0.06761864,-0.034469467,0.018396014,-0.024340615,0.06535831,-0.037580486,0.11611402,-0.021329902,-0.09430013,-0.024631763,-0.034395352,-0.033986133,-0.0097172875,0.13997707,-0.041526146,-0.031969078,-0.041235194,-0.06811228,-0.04942515,-0.041811038,-0.092958525,-0.0060544778,-0.010121368,-0.01154495,-0.018512271,0.1366962,-0.036186602,-0.03880278,-0.028522816,-0.0041501042,-0.07620107,-0.028304707,0.03329064,0.10997206,-0.008399163,-0.054068223,0.011344084,-0.037528835,-0.041316345,-0.026669927,0.032513555,-0.009981577,-0.040293045,-0.035295404,-0.030100077,0.1664815,-0.0024125185,0.049888156,0.1595418,0.04529976,-0.041747883,-0.060904875,-0.012918618,-0.010241695,-0.024125608,-0.03812339,-0.030015003,-0.041706905,-0.022478294,-0.04573332,-0.039425932,-0.02505142,0.09455562,-0.026274968,0.04461229,0.06335196,-0.051087618,-0.052189335,-0.04276657,-0.06047897,-0.038527366,-0.0012803245,-0.0056453478,-0.08129065,-0.037941538,0.13335584,-0.032539904,-0.057691768,-0.022210373,-0.03621118,-0.042698,-0.07348374,-0.058944266,-0.032480802,0.014444947,-0.011951989,0.091276266,-0.010918212
tensor(10),-0.012093348,-0.0049981754,0.16480741,-0.020732837,-0.04112398,0.022087365,-0.020606395,0.050358128,-0.027621854,0.043813422,-0.0480311,0.13099933,-0.04784981,-0.024581343,0.06641248,-0.06408219,0.0008312282,0.025419679,-0.019024469,-0.024972068,-0.0015646485,-0.06386303,-0.024295367,-0.026990985,0.08959305,-0.044366397,-0.026985219,-0.033353567,-0.034430403,-0.032382805,0.0699134,0.094782315,0.05071626,-0.019084128,0.07291718,0.06830194,-0.07977447,0.06576881,-0.020964475,-0.054535285,-0.03257051,-0.022637818,0.20689881,0.014846113,-0.07462583,-0.019340258,-0.036050558,-0.029446052,0.069595456,0.068717696,-0.07386206,-0.03835155,-0.023042284,-0.08341622,-0.045905534,-0.05347054,0.0058473498,-0.025736088,-0.009204118,-0.01278566,0.13183051,-0.024078077,-0.08183804,-0.058263186,0.12581447,0.17455569,-0.020536434,-0.03795782,0.009003736,-0.075508356,-0.07692567,-0.036721062,-0.023459906,-0.035568796,-0.03989514,-0.03153612,0.09843731,-0.08024314,-0.055368256,0.094506934,-0.033191346,-0.057707414,-0.02099718,-0.034113616,-0.05869457,-0.038626157,-0.04483284,-0.056695435,-0.04693289,-0.02948023,-0.0049974676,-0.02416319,-0.009607193,0.06112565,0.0033540856,-0.03808118,-0.017185165,-0.02194444,-0.023873117,-0.011682484,-0.084713295,-0.033752624,-0.0063947104,-0.01853745,-0.013617049,-0.06791018,-0.046543345,0.0662938,-0.051697686,-0.0347992,-0.04818023,-0.033316467,-0.07363732,-0.010200193,-0.0396807,0.08294254,0.08202571,-0.05804093,-0.014458936,-0.010679233,0.0313363,-0.0532429,0.050154783,0.0694163,-0.019008407,-0.03394854,-0.030683817,-0.036590368,-0.028744534,-0.022620901,-0.031864837,-0.015893506,0.02949453,-0.0070824437,-0.09515005,0.18913952,0.010700235,0.06438408,-0.022357818,-0.041974828,0.115301855,-0.04099983,0.025513828,-0.059800446,-0.08225225,-0.094676115,-0.03169373,0.057838116,-0.0025817715,-0.04909365,0.00088472175,-0.057655364,-0.058817137,-0.0031796945,-0.015990134,-0.030146953,-0.029279236,-0.04352757,-0.0123727685,0.06837775,-0.027063008,0.0070573017,-0.0378754,-0.0010614544,0.18142477,-0.023942456,-0.032220017,-0.03979014,-0.067621544,-0.03447032,0.018391162,-0.024346367,0.06536834,-0.03758559,0.11611375,-0.021322606,-0.09429796,-0.024638873,-0.03438986,-0.033995513,-0.009718773,0.13999645,-0.04152823,-0.031971496,-0.041234296,-0.068116486,-0.04942536,-0.041812,-0.09295941,-0.0060632043,-0.010132676,-0.011549152,-0.018512957,0.13670878,-0.036182515,-0.03880359,-0.028524088,-0.004154962,-0.07619952,-0.028305296,0.033285707,0.109972514,-0.008393431,-0.054069724,0.0113349445,-0.03753133,-0.04131338,-0.026670225,0.032508224,-0.009976152,-0.040297832,-0.03530639,-0.030108009,0.16649535,-0.002412456,0.04989542,0.15955947,0.04530547,-0.04175006,-0.06090381,-0.012922768,-0.010236778,-0.02412706,-0.03811935,-0.030020788,-0.041705437,-0.022482112,-0.04574731,-0.039433725,-0.025059963,0.09455627,-0.026266228,0.044617172,0.06335607,-0.051094122,-0.052185707,-0.042767845,-0.060478378,-0.0385293,-0.0012915265,-0.0056447946,-0.08129634,-0.03794063,0.13336186,-0.03253661,-0.057695787,-0.022210574,-0.036215015,-0.042707838,-0.073489994,-0.058942765,-0.032473944,0.01444303,-0.011948359,0.09128289,-0.010928896
tensor(11),-0.34848446,-0.28181872,-0.31214488,-0.32882088,-0.47346595,0.010028871,-0.4072594,0.27654153,-0.7305686,0.72520137,0.50435984,-0.28903356,-0.5752422,0.689341,0.6993473,-0.20292968,0.1004912,-0.16266137,-0.512815,-0.6160479,-0.3937742,-0.5149914,0.7675509,-0.260648,0.64961547,-0.48641157,0.85489,0.13741824,0.8958008,0.676551,-0.43706807,0.52358294,-0.2944018,-0.42047957,1.5044172,0.33340466,-0.3854748,0.5236455,-0.11190261,0.81820667,-0.2225274,-0.454405,-0.24702859,0.54249346,-0.4210783,-0.43302742,-0.747298,0.27205592,0.42768687,0.91627467,-0.6476077,0.6989777,-0.48798585,-0.46977594,0.6858291,-0.31796,-0.7854155,-0.69362617,-0.22105119,0.17444086,0.6255854,-0.68734956,-0.27518672,-0.13128887,0.40811944,-0.12952268,0.64865285,-0.43028575,-0.3279923,-0.6189109,-0.49658614,-0.5365949,-0.4825369,-0.73426276,-0.7151077,-0.1451745,0.8448468,-0.77765965,-0.43788683,0.7340733,-0.4572422,-0.28676936,-0.20894417,1.0305507,-0.29906648,-0.51423144,-0.6267643,-0.85041815,1.0556672,1.2502482,-0.6382391,-0.5773498,-0.51788825,-0.26279372,0.9052264,1.1262056,-0.7652762,0.2234592,-0.42521808,-0.6954645,-0.0637016,-0.32200456,0.7713362,-0.6079327,0.17985655,-0.49114165,-0.68394476,0.5095244,-0.5628793,0.8941376,-0.41532463,-0.6382362,-0.58833003,-0.3098389,-0.45345178,0.43207732,0.57006437,-0.48904684,-0.3096288,0.23266836,0.75743234,0.90569425,-0.56256163,0.15546662,0.83167005,0.33354267,-0.69356483,-0.65382034,-0.21674946,0.91278374,-0.6477229,-0.6331016,-0.36577377,0.23774211,-0.34452233,0.43121955,-0.7166029,0.5546794,1.2148616,-0.3967278,0.4494493,-0.4137809,0.3482901,-0.29912087,0.21634795,-0.6044707,-0.23735556,1.038901,1.6450981,-0.45717978,0.8748226,-0.66199726,-0.7262172,-0.13070919,-0.7148935,-0.5529382,-0.16938959,-0.51696163,0.65605843,-0.2646081,-0.31292668,-0.5804409,-0.12657452,1.2070872,-0.030962579,0.7378111,-0.55586344,-0.6787019,-0.04330817,-0.6461491,0.6390945,-0.24618202,-0.46328902,0.81220037,1.1651754,-0.704638,-0.4582994,0.5409914,0.065310016,0.34880537,-0.5220344,-0.22606578,-0.5325971,0.1356675,-0.4935722,-0.22105978,-0.523193,-0.76397014,-0.7597411,0.63589686,1.0638828,0.3722875,0.56812394,0.20696253,-0.81194526,-0.47771093,0.33672896,-0.3443443,-0.82724655,-0.37454954,0.35791185,0.6153473,-0.49427214,-0.5372384,1.02171,-0.39541805,-0.5944251,-0.50939167,0.9048685,-0.313786,-0.14575417,0.6578769,-0.6307778,-0.10465825,0.014723953,-0.55536664,-0.29704165,-0.44695002,-0.53205246,-0.45290095,-0.54160964,-0.12467627,0.9383313,-0.31180376,1.1301188,-0.3785604,-0.011866029,1.0740706,0.79688126,0.40772018,0.582559,0.1977562,-0.47311577,-0.029147048,0.07763094,-0.4916271,-0.121308655,-0.6558627,-0.3319406,1.1183846,-0.8386846,-0.33411357,-0.4524442,0.7092327,-0.18719804,-0.23602557,-0.42183018,-0.20889549,1.0753243,-0.69688433,-0.5152219,-0.47914252,0.104562655,-0.20338246,-0.348498,0.66262877
tensor(12),-0.012099525,-0.004992664,0.16478556,-0.020730415,-0.041126445,0.022088887,-0.020603672,0.050358392,-0.027629733,0.04382225,-0.048019033,0.13098405,-0.04785025,-0.024572786,0.066420905,-0.06408474,0.0008323309,0.025422879,-0.019030783,-0.024967588,-0.0015672701,-0.06386358,-0.024289805,-0.026986895,0.08959265,-0.044365514,-0.026980896,-0.033360347,-0.034427397,-0.032369956,0.069909014,0.09477869,0.050704084,-0.019085618,0.07292216,0.06830322,-0.079772785,0.06577234,-0.020961415,-0.054533843,-0.032572445,-0.022636237,0.20687217,0.014852963,-0.07462582,-0.019339986,-0.036055088,-0.029448695,0.069598116,0.06871981,-0.073862,-0.03833334,-0.02304465,-0.08340943,-0.045895208,-0.053466637,0.0058435425,-0.025728302,-0.009208165,-0.012781134,0.13183457,-0.02408058,-0.08182739,-0.058255665,0.12580985,0.17453666,-0.020528866,-0.037962783,0.009002125,-0.07550778,-0.07692602,-0.0367205,-0.023463111,-0.035569657,-0.039889053,-0.031534377,0.09843026,-0.08023303,-0.05536727,0.09450005,-0.03319101,-0.057712294,-0.021000724,-0.03410433,-0.058695145,-0.03862662,-0.044833135,-0.05669752,-0.046925638,-0.02946927,-0.004999416,-0.024163475,-0.009608231,0.061119907,0.0033681057,-0.038077842,-0.01718065,-0.021947045,-0.023872172,-0.011681091,-0.084710166,-0.033751953,-0.006384503,-0.01853935,-0.013620379,-0.0679098,-0.046546966,0.0662947,-0.051701054,-0.034788515,-0.048180267,-0.03332192,-0.07363357,-0.0101970965,-0.039685074,0.08293809,0.08202866,-0.058040448,-0.014464233,-0.010682959,0.031342108,-0.053234853,0.050143145,0.06941458,-0.01899215,-0.033951208,-0.030675242,-0.036585487,-0.028751854,-0.022610847,-0.03187349,-0.015894752,0.029490668,-0.0070781875,-0.09513899,0.18913126,0.01069813,0.06438217,-0.022346579,-0.041980095,0.11530134,-0.040998556,0.025525844,-0.059797604,-0.08225726,-0.09467134,-0.03168578,0.057847366,-0.0025681676,-0.049090076,0.0008921939,-0.057656243,-0.058816306,-0.0031793923,-0.015997056,-0.03014594,-0.02928013,-0.043523945,-0.012360949,0.06837042,-0.027067747,0.007049473,-0.037873276,-0.0010511968,0.18141174,-0.023936603,-0.032218378,-0.039794102,-0.06761819,-0.03446933,0.018396772,-0.02433972,0.06535675,-0.037579693,0.116114065,-0.021331042,-0.09430048,-0.024630653,-0.0343962,-0.03398467,-0.009717054,0.13997406,-0.04152582,-0.0319687,-0.04123533,-0.06811162,-0.049425118,-0.041810885,-0.09295839,-0.006053118,-0.010119604,-0.011544295,-0.018512165,0.13669424,-0.03618724,-0.03880265,-0.028522618,-0.0041493434,-0.07620131,-0.028304618,0.033291407,0.109971985,-0.008400054,-0.05406799,0.011345511,-0.037528444,-0.04131681,-0.02666988,0.032514386,-0.009982423,-0.040292293,-0.03529369,-0.030098833,0.16647932,-0.002412525,0.049887024,0.15953904,0.045298867,-0.041747537,-0.06090504,-0.012917973,-0.010242464,-0.024125379,-0.03812403,-0.030014101,-0.041707136,-0.022477698,-0.045731135,-0.039424717,-0.025050087,0.09455551,-0.026276331,0.04461153,0.06335132,-0.051086605,-0.05218991,-0.042766374,-0.060479067,-0.038527064,-0.0012785736,-0.0056454297,-0.08128976,-0.037941676,0.1333549,-0.03254042,-0.05769114,-0.022210341,-0.036210578,-0.04269647,-0.07348277,-0.0589445,-0.03248187,0.014445243,-0.011952551,0.09127524,-0.010916549
tensor(13),-0.012105687,-0.0049871653,0.16476372,-0.020727994,-0.04112891,0.022090413,-0.020600963,0.050358657,-0.027637616,0.043831084,-0.048006933,0.1309688,-0.047850683,-0.024564214,0.06642935,-0.06408729,0.00083342055,0.025426079,-0.019037098,-0.024963103,-0.0015699053,-0.06386413,-0.02428424,-0.026982803,0.08959226,-0.04436464,-0.026976582,-0.03336713,-0.034424387,-0.032357093,0.069904625,0.09477508,0.05069189,-0.01908711,0.07292716,0.068304494,-0.07977112,0.06577588,-0.020958368,-0.054532405,-0.032574367,-0.022634666,0.20684546,0.014859835,-0.07462582,-0.019339707,-0.036059637,-0.02945134,0.06960081,0.068721935,-0.07386196,-0.038315136,-0.023047019,-0.08340265,-0.04588488,-0.05346272,0.0058397185,-0.025720516,-0.00921219,-0.012776615,0.13183862,-0.024083098,-0.08181676,-0.058248147,0.12580523,0.17451763,-0.020521287,-0.037967756,0.009000512,-0.07550721,-0.07692638,-0.036719933,-0.023466315,-0.035570517,-0.039882988,-0.03153262,0.0984232,-0.080222934,-0.05536627,0.09449318,-0.03319068,-0.057717204,-0.021004276,-0.03409505,-0.058695704,-0.038627073,-0.044833418,-0.056699626,-0.046918355,-0.029458325,-0.00500137,-0.024163757,-0.009609258,0.061114173,0.0033821072,-0.0380745,-0.017176138,-0.02194966,-0.023871211,-0.011679722,-0.08470706,-0.033751294,-0.006374281,-0.01854127,-0.013623724,-0.06790942,-0.046550587,0.066295594,-0.05170443,-0.03477783,-0.048180323,-0.03332738,-0.07362981,-0.010193992,-0.03968946,0.08293364,0.082031615,-0.058039963,-0.014469547,-0.010686692,0.03134791,-0.053226817,0.050131507,0.06941287,-0.018975886,-0.033953868,-0.030666666,-0.036580622,-0.028759163,-0.022600789,-0.031882152,-0.015896011,0.029486798,-0.0070739184,-0.09512791,0.189123,0.0106960265,0.06438027,-0.022335319,-0.04198539,0.115300834,-0.04099728,0.02553786,-0.059794743,-0.082262285,-0.09466657,-0.031677835,0.057856634,-0.0025545391,-0.049086522,0.0008996846,-0.057657123,-0.05881546,-0.0031790882,-0.016003981,-0.030144937,-0.029281046,-0.04352033,-0.012349149,0.06836306,-0.027072497,0.007041635,-0.03787116,-0.0010409206,0.18139872,-0.023930747,-0.03221674,-0.03979806,-0.06761484,-0.034468345,0.018402392,-0.02433306,0.06534517,-0.037573766,0.11611438,-0.021339497,-0.09430298,-0.024622424,-0.03440254,-0.033973806,-0.009715331,0.13995162,-0.04152341,-0.03196592,-0.041236352,-0.06810677,-0.049424868,-0.041809786,-0.09295737,-0.006043043,-0.010106517,-0.0115394145,-0.018511392,0.13667971,-0.036191955,-0.038801707,-0.028521162,-0.0041437005,-0.07620312,-0.02830394,0.033297077,0.10997144,-0.00840667,-0.05406624,0.011356112,-0.037525527,-0.04132025,-0.026669547,0.032520548,-0.00998869,-0.04028673,-0.035280973,-0.030089628,0.1664633,-0.0024125655,0.04987861,0.15951857,0.045292262,-0.041745022,-0.060906272,-0.012913149,-0.010248168,-0.024123713,-0.038128704,-0.030007415,-0.04170885,-0.02247328,-0.045714956,-0.0394157,-0.025040204,0.09455475,-0.026286412,0.04460589,0.063346595,-0.05107907,-0.05219412,-0.042764917,-0.060479797,-0.03852481,-0.001265604,-0.005646061,-0.08128317,-0.037942726,0.13334793,-0.032544225,-0.057686508,-0.022210136,-0.03620614,-0.042685106,-0.07347554,-0.05894624,-0.03248979,0.014447457,-0.011956733,0.091267556,-0.010904207
tensor(14),-0.012110309,-0.004983036,0.16474733,-0.020726183,-0.041130763,0.022091554,-0.020598922,0.050358854,-0.027643505,0.043837696,-0.047997862,0.13095735,-0.047851004,-0.024557795,0.06643568,-0.0640892,0.0008342308,0.025428474,-0.019041825,-0.024959736,-0.00157187,-0.06386454,-0.024280071,-0.026979726,0.089591965,-0.044363976,-0.026973344,-0.03337222,-0.034422137,-0.03234746,0.06990135,0.09477237,0.050682746,-0.019088224,0.0729309,0.06830545,-0.07976985,0.06577853,-0.020956092,-0.054531332,-0.0325758,-0.02263349,0.20682546,0.014864985,-0.074625805,-0.01933949,-0.036063045,-0.029453322,0.06960282,0.06872352,-0.07386191,-0.03830148,-0.023048792,-0.08339756,-0.04587714,-0.053459793,0.00583685,-0.025714671,-0.009215208,-0.012773231,0.13184166,-0.024084983,-0.081808805,-0.05824251,0.12580177,0.17450336,-0.020515606,-0.037971478,0.008999318,-0.07550677,-0.07692665,-0.036719512,-0.023468712,-0.035571165,-0.039878417,-0.0315313,0.09841789,-0.08021536,-0.05536552,0.094488025,-0.033190425,-0.057720877,-0.021006934,-0.0340881,-0.058696117,-0.03862741,-0.04483363,-0.056701194,-0.046912897,-0.029450126,-0.005002832,-0.02416396,-0.009610027,0.06110988,0.0033925995,-0.038071997,-0.017172756,-0.021951627,-0.023870487,-0.011678694,-0.08470473,-0.03375079,-0.006366618,-0.0185427,-0.013626232,-0.06790912,-0.046553303,0.06629627,-0.051706947,-0.034769826,-0.048180357,-0.033331465,-0.073626995,-0.010191662,-0.03969275,0.08293029,0.08203383,-0.058039583,-0.014473532,-0.010689489,0.03135226,-0.053220797,0.050122783,0.069411606,-0.0189637,-0.03395586,-0.030660236,-0.03657698,-0.028764643,-0.022593247,-0.031888634,-0.01589696,0.029483898,-0.0070707146,-0.0951196,0.1891168,0.010694446,0.06437886,-0.022326887,-0.041989356,0.11530046,-0.04099634,0.025546864,-0.059792608,-0.08226605,-0.094662994,-0.031671878,0.05786356,-0.0025443407,-0.049083848,0.00090530294,-0.05765778,-0.058814827,-0.0031788675,-0.016009167,-0.030144189,-0.029281724,-0.043517623,-0.012340308,0.06835755,-0.027076062,0.0070357714,-0.03786957,-0.0010332074,0.18138894,-0.023926362,-0.032215517,-0.039801024,-0.06761232,-0.03446761,0.018406603,-0.024328072,0.065336496,-0.037569333,0.11611462,-0.021345828,-0.09430487,-0.024616256,-0.03440729,-0.033965673,-0.009714032,0.13993481,-0.041521605,-0.031963836,-0.041237123,-0.068103135,-0.04942468,-0.04180896,-0.0929566,-0.0060354993,-0.010096703,-0.011535762,-0.018510811,0.1366688,-0.036195494,-0.038801,-0.02852007,-0.0041394825,-0.076204464,-0.028303433,0.033301316,0.10997104,-0.008411632,-0.054064937,0.011364048,-0.03752334,-0.041322827,-0.026669292,0.03252517,-0.009993391,-0.040282555,-0.035271447,-0.030082721,0.16645129,-0.0024126053,0.049872313,0.15950325,0.045287315,-0.041743137,-0.060907193,-0.012909535,-0.010252446,-0.024122471,-0.03813221,-0.0300024,-0.04171015,-0.022469975,-0.045702837,-0.03940894,-0.025032798,0.09455417,-0.026293967,0.044601675,0.06334306,-0.051073425,-0.05219727,-0.04276383,-0.06048035,-0.038523123,-0.0012558866,-0.0056465305,-0.081278205,-0.037943516,0.1333427,-0.032547083,-0.05768304,-0.022209985,-0.03620283,-0.04267659,-0.0734701,-0.05894754,-0.032495722,0.014449115,-0.011959875,0.0912618,-0.010894959
tensor(15),-0.012092378,-0.0049990434,0.16481084,-0.020733219,-0.041123595,0.022087129,-0.02060682,0.050358087,-0.027620606,0.04381203,-0.048033003,0.13100173,-0.047849745,-0.024582691,0.06641115,-0.06408179,0.0008310564,0.025419177,-0.019023474,-0.024972778,-0.0015642317,-0.06386295,-0.024296246,-0.02699163,0.08959311,-0.04436654,-0.026985902,-0.03335251,-0.03443088,-0.03238483,0.06991409,0.09478289,0.050718173,-0.019083893,0.0729164,0.06830174,-0.07977474,0.06576826,-0.020964958,-0.054535516,-0.032570206,-0.022638064,0.20690301,0.014845033,-0.07462583,-0.019340307,-0.036049847,-0.029445639,0.06959503,0.06871736,-0.073862076,-0.03835442,-0.023041908,-0.08341729,-0.04590716,-0.053471155,0.0058479486,-0.02573731,-0.009203484,-0.0127863735,0.13182987,-0.024077674,-0.081839725,-0.058264375,0.12581521,0.17455868,-0.020537626,-0.03795704,0.009003988,-0.075508446,-0.07692562,-0.03672116,-0.023459403,-0.035568662,-0.0398961,-0.031536397,0.09843841,-0.08024473,-0.05536841,0.094508015,-0.0331914,-0.057706647,-0.020996623,-0.034115076,-0.05869448,-0.038626075,-0.044832796,-0.056695104,-0.046934035,-0.029481955,-0.0049971566,-0.02416315,-0.00960703,0.061126553,0.0033518784,-0.03808171,-0.017185872,-0.021944035,-0.023873262,-0.0116826985,-0.08471379,-0.033752732,-0.006396318,-0.01853715,-0.013616523,-0.06791024,-0.04654278,0.06629365,-0.051697154,-0.034800887,-0.048180226,-0.033315606,-0.07363792,-0.010200682,-0.039680015,0.08294324,0.08202525,-0.05804101,-0.014458101,-0.010678646,0.031335384,-0.053244166,0.050156616,0.06941657,-0.019010967,-0.03394812,-0.03068517,-0.036591135,-0.028743379,-0.022622481,-0.031863473,-0.01589331,0.029495135,-0.0070831133,-0.09515179,0.18914083,0.010700567,0.064384386,-0.022359587,-0.041974,0.11530194,-0.041000035,0.02551193,-0.059800893,-0.08225146,-0.09467687,-0.031694982,0.05783666,-0.0025839126,-0.049094208,0.00088354317,-0.05765523,-0.058817267,-0.003179741,-0.015989043,-0.030147113,-0.029279094,-0.04352814,-0.01237463,0.06837891,-0.02706226,0.0070585357,-0.03787573,-0.0010630768,0.18142681,-0.023943374,-0.03222027,-0.039789513,-0.067622066,-0.034470476,0.018390276,-0.024347406,0.06537016,-0.037586518,0.11611371,-0.021321278,-0.09429757,-0.024640165,-0.034388863,-0.033997223,-0.009719044,0.13999999,-0.04152861,-0.031971935,-0.04123413,-0.06811725,-0.049425397,-0.04181217,-0.09295957,-0.0060647894,-0.01013474,-0.011549918,-0.018513076,0.13671106,-0.036181778,-0.03880374,-0.028524317,-0.0041558486,-0.07619923,-0.028305404,0.033284813,0.1099726,-0.00839239,-0.054070003,0.011333278,-0.037531786,-0.041312844,-0.026670279,0.032507256,-0.009975165,-0.040298708,-0.035308387,-0.030109454,0.16649787,-0.002412444,0.049896747,0.15956269,0.045306504,-0.04175045,-0.06090362,-0.012923524,-0.01023588,-0.024127323,-0.038118616,-0.03002184,-0.041705173,-0.022482807,-0.04574986,-0.03943515,-0.02506152,0.0945564,-0.026264638,0.04461806,0.06335682,-0.051095303,-0.052185044,-0.042768072,-0.060478266,-0.03852965,-0.0012935661,-0.005644694,-0.081297375,-0.037940465,0.13336296,-0.03253601,-0.05769652,-0.022210611,-0.036215708,-0.04270963,-0.07349113,-0.05894249,-0.032472692,0.014442681,-0.011947699,0.091284096,-0.010930845
tensor(16),-0.42129058,-0.34932262,-0.4092169,-0.4057501,-0.57748693,0.0077388696,-0.5038687,0.32865986,-0.8951946,0.8864934,0.6254773,-0.37733954,-0.7026435,0.8516825,0.84874487,-0.23803395,0.12258329,-0.20944798,-0.6270127,-0.76228255,-0.48625916,-0.6247981,0.954333,-0.32006103,0.7860146,-0.5918185,1.0604732,0.18516624,1.1195159,0.83371353,-0.5545211,0.627144,-0.36797458,-0.5155833,1.8469899,0.39689925,-0.46356785,0.6308588,-0.13696824,1.0281893,-0.2641439,-0.5624803,-0.3308276,0.66541547,-0.50645024,-0.537652,-0.91714793,0.34960973,0.51377076,1.1194649,-0.7890793,0.863324,-0.59792227,-0.56636024,0.8571894,-0.38660672,-0.97467643,-0.8607509,-0.26704445,0.21916436,0.7440055,-0.84926677,-0.3318334,-0.15086633,0.4802764,-0.18782741,0.8082183,-0.52093613,-0.41148216,-0.75511193,-0.6037982,-0.6587294,-0.5936065,-0.903978,-0.88487446,-0.17768334,1.033398,-0.9585158,-0.5320434,0.8966389,-0.55790883,-0.34345162,-0.25578347,1.2851706,-0.35509828,-0.6255107,-0.76990235,-1.0409963,1.3152875,1.5471059,-0.7891294,-0.7122892,-0.6403835,-0.3356638,1.1130116,1.4030323,-0.95028347,0.2818051,-0.52258915,-0.8625603,-0.066691115,-0.3899125,0.9498347,-0.74718297,0.2295153,-0.59644896,-0.8342967,0.6136698,-0.6861983,1.1108227,-0.5060736,-0.77824575,-0.7170025,-0.38357222,-0.5499205,0.5190333,0.68832713,-0.59559786,-0.37679455,0.29325047,0.925981,1.1311973,-0.7042129,0.17564574,1.0242378,0.4268994,-0.8629132,-0.8082037,-0.25663018,1.1300018,-0.794747,-0.77882797,-0.46180207,0.2938105,-0.41075748,0.49866125,-0.8938098,0.6726587,1.5095749,-0.48042166,0.53005224,-0.50449425,0.41428947,-0.35694283,0.28983855,-0.7303709,-0.29357073,1.2704096,2.033117,-0.5585347,1.0794061,-0.81079215,-0.88585514,-0.16206414,-0.8808062,-0.67672676,-0.20385516,-0.63457,0.8109563,-0.33828068,-0.37886176,-0.7133366,-0.15033723,1.4916474,-0.07104025,0.91675365,-0.6795228,-0.830966,-0.040407322,-0.7936121,0.7804284,-0.30444127,-0.58301115,1.0127398,1.4220293,-0.86385787,-0.55032444,0.6688474,0.09380373,0.4309808,-0.64663595,-0.2992121,-0.6558057,0.1755035,-0.6001918,-0.2616683,-0.63937557,-0.9379185,-0.9243696,0.78104806,1.3140552,0.46121305,0.7084067,0.23612684,-0.9983529,-0.5877725,0.4298906,-0.43018705,-1.012207,-0.4585992,0.4313189,0.74109745,-0.6130076,-0.6542624,1.2593338,-0.48522696,-0.7277645,-0.6245902,1.1110367,-0.3873335,-0.17567162,0.81698996,-0.7829818,-0.15374398,0.018177457,-0.69574326,-0.38831425,-0.5626609,-0.64988637,-0.54786175,-0.67283237,-0.14705661,1.1700623,-0.37618193,1.4103456,-0.45679227,-0.008322235,1.3329468,0.9904973,0.5052243,0.7034994,0.25988826,-0.59102947,-0.044976983,0.104680076,-0.5916915,-0.14157078,-0.8021256,-0.40391096,1.3774577,-1.0381119,-0.40124983,-0.55116564,0.8553919,-0.22621766,-0.28264377,-0.518961,-0.2547911,1.3365399,-0.85226953,-0.6259734,-0.57965076,0.12271763,-0.24769825,-0.448721,0.81747144
tensor(17),-0.012083328,-0.0050071664,0.16484296,-0.020736784,-0.04111999,0.022084903,-0.020610806,0.05035771,-0.027609002,0.043799017,-0.048050746,0.13102418,-0.04784912,-0.024595272,0.06639876,-0.06407807,0.0008294424,0.025414469,-0.01901421,-0.024979377,-0.0015603765,-0.063862145,-0.024304442,-0.026997672,0.08959369,-0.044367842,-0.026992256,-0.03334254,-0.03443533,-0.032403726,0.069920525,0.09478824,0.050736077,-0.01908168,0.072909065,0.06829986,-0.079777226,0.065763086,-0.02096945,-0.054537646,-0.032567352,-0.022640374,0.20694223,0.014834933,-0.07462585,-0.019340727,-0.036043175,-0.029441737,0.069591135,0.06871423,-0.07386218,-0.038381174,-0.02303841,-0.08342728,-0.04592236,-0.053476922,0.005853546,-0.025748732,-0.009197541,-0.012793043,0.13182393,-0.02407399,-0.0818554,-0.058275446,0.12582202,0.1745867,-0.020548772,-0.03794972,0.009006368,-0.0755093,-0.07692511,-0.036721975,-0.023454692,-0.035567414,-0.039905075,-0.031538967,0.09844876,-0.080259584,-0.055369828,0.09451814,-0.033191882,-0.05769945,-0.020991398,-0.034128714,-0.058693662,-0.038625367,-0.04483235,-0.056692034,-0.046944685,-0.029498067,-0.0049942937,-0.02416273,-0.009605506,0.06113503,0.0033312626,-0.038086623,-0.01719251,-0.021940228,-0.023874646,-0.011684721,-0.08471838,-0.033753704,-0.0064113177,-0.01853438,-0.013611609,-0.06791082,-0.046537433,0.066292316,-0.051692203,-0.03481661,-0.04818018,-0.033307582,-0.07364346,-0.010205235,-0.039673608,0.08294976,0.08202091,-0.058041718,-0.01445031,-0.010673147,0.031326853,-0.053256027,0.050173722,0.06941908,-0.019034883,-0.033944197,-0.030697828,-0.036598295,-0.028732596,-0.022637244,-0.031850714,-0.015891483,0.029500823,-0.0070893643,-0.095168054,0.189153,0.010703662,0.0643872,-0.022376105,-0.04196624,0.1153027,-0.041001905,0.02549425,-0.059805058,-0.08224408,-0.094683886,-0.031706687,0.057823062,-0.002603922,-0.04909944,0.0008725703,-0.057653926,-0.05881849,-0.003180202,-0.015978886,-0.030148616,-0.02927776,-0.043533474,-0.012392029,0.06838971,-0.0270553,0.0070700534,-0.037878826,-0.0010781661,0.18144599,-0.023951974,-0.032222703,-0.0397837,-0.06762701,-0.03447192,0.018382022,-0.024357166,0.065387204,-0.037595198,0.116113245,-0.021308858,-0.09429387,-0.024652258,-0.03437952,-0.034013167,-0.009721588,0.14003295,-0.041532148,-0.031976033,-0.0412326,-0.0681244,-0.049425744,-0.041813817,-0.09296109,-0.006079631,-0.01015397,-0.011557046,-0.018514223,0.13673246,-0.03617486,-0.03880512,-0.028526478,-0.004164129,-0.076196596,-0.0283064,0.033276454,0.10997339,-0.00838268,-0.054072585,0.0113177225,-0.03753602,-0.0413078,-0.02667077,0.03249818,-0.009965968,-0.040306862,-0.03532707,-0.030122954,0.16652143,-0.0024123397,0.049909092,0.15959275,0.04531622,-0.041754168,-0.06090179,-0.012930568,-0.010227488,-0.02412979,-0.038111746,-0.030031653,-0.04170264,-0.022489298,-0.04577368,-0.03944842,-0.02507606,0.09455751,-0.026249796,0.04462636,0.063363776,-0.05110636,-0.052178875,-0.042770218,-0.06047724,-0.03853295,-0.0013126116,-0.005643759,-0.08130705,-0.037938915,0.1333732,-0.032530397,-0.057703353,-0.02221095,-0.03622225,-0.04272634,-0.07350175,-0.05893993,-0.03246103,0.01443942,-0.011941509,0.09129539,-0.010949002
tensor(18),-0.0121330675,-0.004960821,0.16466314,-0.020717049,-0.041140184,0.02209756,-0.020589355,0.050359275,-0.027674062,0.043871548,-0.04794978,0.13089837,-0.04785184,-0.024524488,0.06646874,-0.0640994,0.0008378858,0.025440205,-0.019065998,-0.024942063,-0.0015818761,-0.06386646,-0.02425884,-0.026963571,0.08959124,-0.04436001,-0.026956096,-0.033398304,-0.03441051,-0.032298688,0.069884695,0.09475919,0.050636098,-0.01909439,0.07295125,0.06831085,-0.07976436,0.065792374,-0.0209447,-0.054525163,-0.032583717,-0.022627164,0.2067222,0.0148909595,-0.074625894,-0.019337866,-0.036079764,-0.02946294,0.06961357,0.0687318,-0.07386167,-0.038231544,-0.023058057,-0.08337174,-0.045836892,-0.053444285,0.0058224825,-0.02568552,-0.009230435,-0.012756,0.13185725,-0.024095265,-0.081768215,-0.058212638,0.12578514,0.17443043,-0.020485558,-0.03799097,0.008991154,-0.07550488,-0.076928586,-0.036718372,-0.023481594,-0.03557381,-0.039855137,-0.031525,0.09839097,-0.080178015,-0.05536119,0.09446216,-0.033189178,-0.057739504,-0.021019481,-0.034053877,-0.058699258,-0.03863007,-0.044835065,-0.056709852,-0.04688383,-0.02940776,-0.0050106384,-0.024165891,-0.009613782,0.061087012,0.0034456253,-0.03805819,-0.017156022,-0.021961302,-0.023867821,-0.011674009,-0.08469388,-0.033750024,-0.0063267034,-0.018549524,-0.0136396345,-0.06790699,-0.046568066,0.066300586,-0.051719435,-0.034728598,-0.048181504,-0.0333523,-0.07361245,-0.01017917,-0.039710373,0.08291355,0.08204694,-0.058037795,-0.014494017,-0.010703064,0.031374875,-0.053189322,0.050077908,0.06940621,-0.018901369,-0.033967018,-0.03062716,-0.03655854,-0.028793726,-0.022553481,-0.03192251,-0.015901359,0.029469697,-0.007055143,-0.09507677,0.1890859,0.01068571,0.06437224,-0.022284104,-0.042010814,0.11529775,-0.04099158,0.025594851,-0.059781604,-0.08228564,-0.09464418,-0.031642087,0.057900235,-0.0024911026,-0.04907022,0.000934117,-0.057660997,-0.05881096,-0.0031773862,-0.016035836,-0.030139647,-0.0292858,-0.0435041,-0.0122946445,0.06832885,-0.027094048,0.007005508,-0.037861586,-0.0009936579,0.18133992,-0.023903605,-0.032210007,-0.039816502,-0.067600206,-0.034464378,0.018427724,-0.024303261,0.06529242,-0.037545715,0.11611709,-0.021379504,-0.09431467,-0.024584405,-0.03443183,-0.03392447,-0.009705871,0.13984746,-0.041512437,-0.031953435,-0.04124163,-0.068085395,-0.04942509,-0.04180465,-0.092953354,-0.0059967823,-0.010046087,-0.011516629,-0.018508263,0.13661352,-0.036213238,-0.038797405,-0.028515302,-0.0041168486,-0.07621264,-0.02830024,0.03332327,0.10996981,-0.00843614,-0.054057874,0.011405757,-0.03751168,-0.04133569,-0.026668603,0.032547727,-0.010016893,-0.040260874,-0.035224386,-0.030047823,0.16639023,-0.0024121746,0.049839318,0.15942435,0.045261968,-0.04173345,-0.060911193,-0.012890626,-0.010274731,-0.024115525,-0.038150255,-0.0299761,-0.04171633,-0.02245213,-0.04564079,-0.039373897,-0.02499344,0.09455126,-0.026333412,0.044580095,0.063324995,-0.051044468,-0.052212793,-0.042758822,-0.060483802,-0.03851424,-0.001204906,-0.005649464,-0.081252694,-0.037948165,0.1333164,-0.032561786,-0.057665043,-0.022208866,-0.03618464,-0.042632356,-0.07344242,-0.058954515,-0.03252635,0.014458045,-0.011976249,0.09123136,-0.01084708
tensor(19),-0.01209628,-0.004995555,0.16479704,-0.020731684,-0.04112515,0.022088084,-0.020605102,0.05035826,-0.0276256,0.043817617,-0.048025366,0.13099207,-0.04785002,-0.024577282,0.06641648,-0.0640834,0.00083174976,0.0254212,-0.019027462,-0.024969937,-0.0015658909,-0.06386329,-0.024292726,-0.026989039,0.08959286,-0.044365976,-0.026983164,-0.033356786,-0.03442897,-0.0323767,0.069911316,0.094780594,0.050710473,-0.019084835,0.07291955,0.06830254,-0.07977367,0.065770485,-0.02096302,-0.0545346,-0.032571428,-0.02263707,0.20688614,0.0148493685,-0.07462583,-0.019340131,-0.03605271,-0.029447312,0.06959672,0.0687187,-0.07386203,-0.038342904,-0.023043407,-0.08341299,-0.045900628,-0.05346869,0.005845542,-0.025732389,-0.009206038,-0.012783511,0.13183245,-0.024079261,-0.081832975,-0.05825961,0.12581228,0.17454664,-0.020532839,-0.037960175,0.0090029705,-0.07550808,-0.07692584,-0.036720797,-0.023461428,-0.035569206,-0.039892256,-0.031535294,0.098433964,-0.08023834,-0.05536779,0.09450366,-0.03319119,-0.05770974,-0.020998864,-0.0341092,-0.058694847,-0.038626373,-0.044832982,-0.05669643,-0.04692945,-0.029475026,-0.0049983934,-0.024163326,-0.009607687,0.06112292,0.0033607446,-0.038079597,-0.017183019,-0.021945678,-0.023872668,-0.011681823,-0.08471181,-0.033752307,-0.0063898657,-0.018538354,-0.013618633,-0.06791,-0.046545066,0.06629422,-0.05169928,-0.034794122,-0.048180252,-0.03331906,-0.07363553,-0.0101987235,-0.03968278,0.08294042,0.08202711,-0.05804071,-0.01446145,-0.010681002,0.03133906,-0.053239077,0.05014926,0.06941548,-0.019000689,-0.033949807,-0.030679746,-0.03658805,-0.02874801,-0.022616128,-0.031868946,-0.015894094,0.029492691,-0.00708042,-0.09514479,0.1891356,0.010699236,0.06438318,-0.02235248,-0.041977327,0.11530161,-0.040999223,0.025519535,-0.05979909,-0.08225463,-0.09467385,-0.031689953,0.057842508,-0.0025753123,-0.04909195,0.0008882679,-0.05765579,-0.058816746,-0.0031795506,-0.015993422,-0.03014647,-0.02927966,-0.043525845,-0.012367152,0.06837427,-0.027065262,0.007053584,-0.037874393,-0.0010565836,0.18141857,-0.023939677,-0.03221923,-0.03979202,-0.06761995,-0.034469847,0.018393828,-0.024343211,0.065362826,-0.03758279,0.1161139,-0.02132661,-0.09429915,-0.024634968,-0.03439288,-0.03399036,-0.009717957,0.1399858,-0.04152708,-0.03197017,-0.041234788,-0.06811418,-0.049425244,-0.041811466,-0.09295893,-0.0060584173,-0.01012647,-0.0115468465,-0.01851258,0.13670188,-0.036184758,-0.038803145,-0.028523387,-0.004152294,-0.076200366,-0.028304975,0.03328841,0.10997226,-0.008396577,-0.0540689,0.011339963,-0.037529964,-0.04131501,-0.026670063,0.032511152,-0.00997913,-0.040295202,-0.03530036,-0.03010365,0.16648774,-0.0024124905,0.04989144,0.15954977,0.04530233,-0.04174886,-0.0609044,-0.012920495,-0.010239479,-0.024126261,-0.038121574,-0.030017613,-0.041706245,-0.022480015,-0.04573963,-0.03942945,-0.025055269,0.094555914,-0.026271027,0.044614486,0.063353814,-0.051090553,-0.052187704,-0.04276715,-0.060478702,-0.038528234,-0.001285376,-0.0056451,-0.08129322,-0.037941124,0.13335857,-0.032538418,-0.05769358,-0.022210464,-0.03621291,-0.042702436,-0.07348657,-0.058943592,-0.032477707,0.014444083,-0.01195035,0.09127925,-0.010923033
tensor(20),-0.01210334,-0.004989257,0.16477203,-0.020728916,-0.04112797,0.022089832,-0.020601995,0.050358552,-0.027634608,0.043827724,-0.048011534,0.1309746,-0.047850523,-0.024567477,0.06642613,-0.06408632,0.00083300937,0.025424859,-0.019034691,-0.024964815,-0.001568899,-0.06386392,-0.024286356,-0.02698436,0.08959241,-0.044364974,-0.026978219,-0.03336455,-0.034425534,-0.03236199,0.069906294,0.09477645,0.050696537,-0.019086542,0.072925255,0.06830401,-0.07977176,0.06577453,-0.020959526,-0.054532953,-0.032573637,-0.022635266,0.20685562,0.014857218,-0.07462582,-0.019339815,-0.036057908,-0.029450335,0.069599785,0.06872112,-0.07386197,-0.038322072,-0.023046117,-0.08340523,-0.045888815,-0.053464215,0.005841177,-0.025723482,-0.009210657,-0.012778336,0.13183708,-0.024082141,-0.081820816,-0.058251012,0.12580699,0.17452489,-0.020524172,-0.037965864,0.00900113,-0.07550743,-0.07692625,-0.036720153,-0.023465091,-0.03557019,-0.039885297,-0.031533293,0.09842588,-0.08022678,-0.055366654,0.0944958,-0.033190805,-0.057715334,-0.021002922,-0.034098584,-0.05869549,-0.0386269,-0.04483331,-0.05669882,-0.046921134,-0.029462498,-0.0050006285,-0.02416365,-0.009608865,0.061116364,0.0033767708,-0.03807577,-0.01717786,-0.021948665,-0.023871576,-0.011680247,-0.08470824,-0.033751547,-0.006378172,-0.01854054,-0.013622448,-0.06790956,-0.04654921,0.06629526,-0.051703136,-0.034781903,-0.048180304,-0.0333253,-0.07363125,-0.010195174,-0.039687794,0.08293533,0.08203049,-0.058040146,-0.0144675225,-0.010685268,0.0313457,-0.053229876,0.05013594,0.06941352,-0.01898208,-0.033952855,-0.03066994,-0.036582485,-0.02875638,-0.022604618,-0.03187885,-0.015895529,0.029488277,-0.00707555,-0.09513213,0.18912616,0.010696829,0.064380996,-0.022339605,-0.041983373,0.11530103,-0.04099777,0.025533281,-0.059795834,-0.08226038,-0.09466839,-0.031680856,0.057853103,-0.0025597261,-0.049087875,0.0008968306,-0.057656784,-0.058815785,-0.0031792019,-0.01600134,-0.03014532,-0.029280696,-0.043521706,-0.01235364,0.06836587,-0.027070686,0.0070446217,-0.037871964,-0.0010448359,0.18140367,-0.023932975,-0.032217365,-0.03979655,-0.06761611,-0.03446872,0.018400248,-0.024335604,0.06534958,-0.037576023,0.11611426,-0.021336276,-0.09430203,-0.02462556,-0.034400128,-0.033977956,-0.0097159855,0.13996017,-0.041524332,-0.031966977,-0.04123596,-0.06810862,-0.049424965,-0.041810207,-0.092957765,-0.006046878,-0.010111501,-0.011541273,-0.018511686,0.13668525,-0.03619016,-0.03880207,-0.028521717,-0.004145852,-0.07620243,-0.0283042,0.033294916,0.10997165,-0.008404151,-0.05406691,0.011352073,-0.037526637,-0.041318934,-0.026669672,0.032518197,-0.009986301,-0.040288847,-0.03528582,-0.030093137,0.16646941,-0.0024125462,0.049881816,0.1595264,0.045294777,-0.04174598,-0.060905807,-0.012914989,-0.010245997,-0.024124352,-0.038126923,-0.030009963,-0.041708194,-0.022474961,-0.04572112,-0.039419137,-0.025043972,0.09455504,-0.026282573,0.044608038,0.06334839,-0.05108194,-0.05219251,-0.042765472,-0.060479514,-0.03852567,-0.0012705456,-0.005645819,-0.08128568,-0.03794233,0.13335058,-0.03254278,-0.057688273,-0.022210218,-0.036207832,-0.042689435,-0.0734783,-0.058945578,-0.03248677,0.014446619,-0.011955141,0.09127048,-0.01090891
tensor(21),-0.48093033,-0.40462977,-0.4887609,-0.4687835,-0.6627146,0.0058776326,-0.58301723,0.37138662,-1.0300909,1.0186554,0.72470224,-0.44969115,-0.8070123,0.9846843,0.9711433,-0.26676184,0.14067994,-0.24777155,-0.72055304,-0.8820984,-0.5620606,-0.71475166,1.1073647,-0.3687474,0.8977569,-0.67817247,1.2289206,0.22426914,1.302803,0.9624607,-0.65074676,0.71200883,-0.42824578,-0.5934887,2.127678,0.44892445,-0.5275636,0.71871954,-0.15751114,1.2002412,-0.29825348,-0.6510137,-0.39945987,0.76610345,-0.5764011,-0.62337685,-1.056301,0.41316462,0.58431983,1.2859479,-0.9049737,0.9979757,-0.6879713,-0.645488,0.99758786,-0.4428452,-1.129755,-0.9976716,-0.30470893,0.25580508,0.8410353,-0.98193884,-0.37825832,-0.16689253,0.53940254,-0.23561871,0.93896407,-0.5952325,-0.47988334,-0.8667029,-0.69164073,-0.75878984,-0.6845911,-1.0430382,-1.023976,-0.20432276,1.1878592,-1.1067154,-0.60916686,1.0298187,-0.6403785,-0.38990277,-0.29417247,1.4937501,-0.40099525,-0.7166682,-0.88716215,-1.1971116,1.527989,1.7902894,-0.91273886,-0.8228369,-0.74073225,-0.39536974,1.2832459,1.6298419,-1.1018754,0.32962972,-0.6023753,-0.9994787,-0.069151625,-0.44556433,1.0960915,-0.86126626,0.27020985,-0.68275315,-0.95751286,0.6989958,-0.78721243,1.2883493,-0.5804105,-0.8929573,-0.82243186,-0.44399047,-0.6289705,0.5902758,0.785213,-0.68288004,-0.4318125,0.34287646,1.064072,1.3159506,-0.8202551,0.1921719,1.1820207,0.5033671,-1.0016538,-0.9346658,-0.28931418,1.307954,-0.91519725,-0.8981998,-0.54047126,0.33974743,-0.46503043,0.553909,-1.0390053,0.7693121,1.751051,-0.5490193,0.59609514,-0.57884365,0.46836728,-0.40429214,0.35002947,-0.83353585,-0.33963323,1.4600912,2.3509989,-0.6415648,1.2470143,-0.9327081,-1.0166763,-0.18773992,-1.0167253,-0.7781529,-0.23210767,-0.7309229,0.9378747,-0.3986563,-0.43287858,-0.82221675,-0.16982858,1.7247642,-0.10385495,1.0633433,-0.78085524,-0.9557045,-0.03801229,-0.91443086,0.8962311,-0.35216278,-0.68110305,1.1770355,1.6324835,-0.99431044,-0.6257399,0.77357495,0.11717504,0.49832502,-0.7487201,-0.3591152,-0.75678086,0.20815246,-0.68753123,-0.294959,-0.73458594,-1.0804225,-1.0592473,0.89996856,1.5190095,0.5340439,0.8233666,0.26002377,-1.1510649,-0.6779381,0.50621295,-0.5004989,-1.1637447,-0.5274703,0.4914887,0.8441323,-0.7102711,-0.7501342,1.4540029,-0.5588246,-0.8369891,-0.7189624,1.2799507,-0.44760072,-0.20020455,0.9473495,-0.9077028,-0.19393522,0.020986345,-0.81075597,-0.46310538,-0.65746033,-0.7464162,-0.62568074,-0.780347,-0.16541982,1.3599426,-0.42893064,1.6399167,-0.5208746,-0.0054040365,1.5450593,1.149142,0.585121,0.8025776,0.31077895,-0.68760407,-0.057970088,0.12681875,-0.6736924,-0.15816891,-0.9219509,-0.46285382,1.5896956,-1.2014909,-0.45626536,-0.63206387,0.97517234,-0.2581881,-0.32084507,-0.5985591,-0.29239225,1.5505352,-0.97958744,-0.71670437,-0.6620079,0.13758549,-0.2840179,-0.5308184,0.9443513
tensor(22),-0.012102647,-0.0049898755,0.16477449,-0.020729184,-0.041127693,0.02208966,-0.0206023,0.050358526,-0.027633723,0.043826737,-0.048012897,0.13097632,-0.047850475,-0.024568439,0.06642518,-0.064086035,0.0008328911,0.0254245,-0.019033985,-0.024965318,-0.0015686019,-0.06386386,-0.02428698,-0.02698482,0.08959245,-0.04436507,-0.026978705,-0.033363786,-0.034425873,-0.032363433,0.069906786,0.09477686,0.050697908,-0.019086372,0.072924696,0.06830387,-0.079771936,0.06577414,-0.020959869,-0.054533117,-0.03257342,-0.022635445,0.20685863,0.014856446,-0.07462582,-0.019339845,-0.036057398,-0.029450038,0.06959948,0.06872089,-0.07386198,-0.038324118,-0.023045853,-0.08340599,-0.045889974,-0.05346466,0.0058416007,-0.025724357,-0.009210207,-0.012778841,0.13183662,-0.024081858,-0.08182201,-0.058251858,0.12580751,0.17452703,-0.020525027,-0.037965305,0.009001311,-0.07550749,-0.0769262,-0.036720216,-0.023464732,-0.035570096,-0.03988598,-0.03153349,0.09842668,-0.08022791,-0.055366762,0.09449658,-0.033190846,-0.057714783,-0.02100252,-0.034099627,-0.058695424,-0.03862685,-0.044833276,-0.056698583,-0.046921954,-0.029463723,-0.005000407,-0.024163617,-0.009608753,0.06111701,0.0033752006,-0.038076147,-0.017178366,-0.021948367,-0.02387168,-0.0116804,-0.08470859,-0.03375162,-0.0063793175,-0.018540325,-0.0136220725,-0.06790961,-0.0465488,0.066295154,-0.05170276,-0.034783106,-0.048180293,-0.03332469,-0.07363167,-0.010195521,-0.039687302,0.08293583,0.08203016,-0.0580402,-0.014466928,-0.01068485,0.031345055,-0.053230777,0.050137248,0.06941371,-0.018983914,-0.033952557,-0.030670894,-0.03658302,-0.02875556,-0.022605743,-0.031877875,-0.015895389,0.029488709,-0.0070760306,-0.09513337,0.18912707,0.010697067,0.06438121,-0.022340871,-0.041982785,0.11530109,-0.040997915,0.025531936,-0.05979616,-0.08225981,-0.094668925,-0.031681754,0.057852067,-0.00256126,-0.049088277,0.0008959898,-0.05765669,-0.05881588,-0.003179234,-0.016000561,-0.030145433,-0.029280592,-0.043522105,-0.012354964,0.06836669,-0.027070154,0.0070455037,-0.0378722,-0.0010459907,0.18140514,-0.023933634,-0.032217547,-0.039796103,-0.06761649,-0.034468833,0.018399622,-0.024336342,0.065350875,-0.037576687,0.11611422,-0.021335328,-0.094301745,-0.024626484,-0.034399413,-0.03397917,-0.009716177,0.13996267,-0.0415246,-0.031967293,-0.04123585,-0.06810917,-0.049424987,-0.04181033,-0.09295788,-0.006048005,-0.010112971,-0.011541821,-0.018511776,0.13668688,-0.036189627,-0.038802173,-0.02852188,-0.004146488,-0.07620223,-0.028304275,0.033294283,0.10997171,-0.008403406,-0.054067105,0.011350887,-0.03752696,-0.041318547,-0.026669715,0.032517508,-0.0099856,-0.04028948,-0.03528725,-0.030094173,0.16647121,-0.0024125436,0.049882762,0.15952869,0.04529552,-0.041746262,-0.06090567,-0.012915533,-0.010245357,-0.024124537,-0.038126398,-0.030010711,-0.041708004,-0.022475459,-0.04572294,-0.03942015,-0.02504508,0.09455513,-0.026281442,0.044608675,0.06334892,-0.051082786,-0.052192036,-0.042765632,-0.060479432,-0.038525924,-0.0012720078,-0.0056457464,-0.081286415,-0.037942216,0.13335137,-0.03254235,-0.05768879,-0.022210239,-0.036208328,-0.04269071,-0.07347911,-0.05894538,-0.03248588,0.0144463675,-0.011954674,0.09127134,-0.010910296
tensor(23),-0.012122297,-0.004971683,0.16470355,-0.02072138,-0.04113588,0.022094568,-0.020593658,0.050359268,-0.0276596,0.043855473,-0.047973044,0.13092646,-0.047851577,-0.02454029,0.06645294,-0.06409447,0.0008362606,0.025434555,-0.019054726,-0.024950592,-0.0015773852,-0.063865505,-0.02426869,-0.026971262,0.08959141,-0.044362012,-0.026964355,-0.033385757,-0.034415927,-0.03232175,0.069892675,0.09476547,0.05065833,-0.019091418,0.07294129,0.068308204,-0.079766974,0.065785766,-0.020950127,-0.054528065,-0.032579824,-0.02263023,0.20677173,0.014878891,-0.07462578,-0.0193391,-0.036071926,-0.02945852,0.06960851,0.06872811,-0.073861904,-0.0382647,-0.023053702,-0.08338412,-0.045856338,-0.053451855,0.005829162,-0.02569917,-0.0092231,-0.0127641475,0.13184984,-0.024090583,-0.08178783,-0.058227092,0.12579298,0.17446516,-0.020499898,-0.037981637,0.008995425,-0.075505786,-0.07692768,-0.03671863,-0.023475295,-0.03557269,-0.039866313,-0.031528033,0.098403506,-0.08019553,-0.055363245,0.094474256,-0.033189718,-0.057730705,-0.021013565,-0.03406995,-0.058697544,-0.038628712,-0.044834312,-0.056705516,-0.04689809,-0.02942777,-0.005006926,-0.02416481,-0.009612041,0.06109827,0.0034204666,-0.0380647,-0.017163886,-0.021956626,-0.023868935,-0.011676276,-0.08469869,-0.033750277,-0.0063458327,-0.018546507,-0.013633174,-0.06790826,-0.046560906,0.066298485,-0.051713515,-0.034748342,-0.04818087,-0.033342447,-0.073619485,-0.010185104,-0.03970181,0.08292134,0.08204037,-0.058038633,-0.014484171,-0.010696638,0.031364106,-0.053204037,0.05009931,0.06940846,-0.018930813,-0.03396158,-0.03064295,-0.03656736,-0.028779952,-0.022572586,-0.03190621,-0.015899425,0.029476214,-0.0070623597,-0.09509696,0.18910062,0.010689941,0.06437551,-0.022304513,-0.042000644,0.115299255,-0.04099386,0.025571745,-0.059786893,-0.082276076,-0.09465349,-0.031656243,0.057882786,-0.0025166934,-0.04907659,0.00092049106,-0.057659388,-0.05881275,-0.0031780964,-0.016023222,-0.03014222,-0.029283725,-0.043510295,-0.012316549,0.06834248,-0.027085355,0.007019994,-0.03786528,-0.0010124296,0.18136331,-0.02391462,-0.032212395,-0.039809015,-0.0676056,-0.034466077,0.018418,-0.024315074,0.06531347,-0.037556805,0.11611579,-0.021363094,-0.09431,-0.024599798,-0.034420177,-0.033944227,-0.009709934,0.13988933,-0.041516874,-0.031958465,-0.041239444,-0.06809375,-0.049424805,-0.04180672,-0.09295477,-0.006015148,-0.010070097,-0.011525758,-0.018509198,0.1366398,-0.03620463,-0.038798977,-0.028517438,-0.0041281614,-0.07620856,-0.02830174,0.033312812,0.1099703,-0.008424675,-0.054061443,0.011385848,-0.037517503,-0.041329786,-0.02666879,0.032537363,-0.010005714,-0.040271312,-0.035246458,-0.030064538,0.1664193,-0.0024126354,0.04985508,0.15946192,0.045273773,-0.041738104,-0.060909558,-0.01289985,-0.010263996,-0.024118833,-0.038141616,-0.029988647,-0.041713476,-0.022460915,-0.04567046,-0.039390773,-0.025012353,0.094552696,-0.026314603,0.044590503,0.06333361,-0.05105824,-0.052205823,-0.042761076,-0.06048209,-0.038518686,-0.0012294911,-0.0056482404,-0.08126491,-0.037946045,0.133329,-0.032554574,-0.057673674,-0.022209497,-0.036193617,-0.04265354,-0.07345565,-0.058951102,-0.03251176,0.014453781,-0.011968369,0.09124598,-0.0108698355
tensor(24),-0.01209812,-0.004993915,0.16479053,-0.020730961,-0.04112588,0.022088543,-0.020604294,0.050358336,-0.027627941,0.04382025,-0.04802177,0.13098752,-0.047850154,-0.024574727,0.06641899,-0.06408416,0.00083208224,0.02542215,-0.019029345,-0.024968604,-0.0015666713,-0.063863456,-0.024291065,-0.026987823,0.08959274,-0.04436572,-0.026981873,-0.03335881,-0.03442808,-0.03237287,0.069910005,0.094779514,0.05070685,-0.01908528,0.07292103,0.06830293,-0.079773165,0.06577154,-0.020962108,-0.054534167,-0.032572,-0.022636596,0.20687822,0.014851409,-0.07462582,-0.01934005,-0.03605406,-0.029448098,0.06959751,0.06871933,-0.073862016,-0.038337477,-0.023044113,-0.08341098,-0.045897555,-0.053467527,0.005844403,-0.025730068,-0.009207245,-0.012782163,0.13183364,-0.02408001,-0.081829816,-0.05825737,0.12581089,0.17454098,-0.020530585,-0.037961654,0.009002496,-0.07550791,-0.07692595,-0.036720622,-0.023462376,-0.035569467,-0.03989044,-0.031534776,0.09843186,-0.08023533,-0.0553675,0.094501615,-0.033191092,-0.05771119,-0.020999916,-0.034106437,-0.058695015,-0.038626514,-0.04483307,-0.056697045,-0.046927292,-0.029471757,-0.0049989764,-0.02416341,-0.009607999,0.061121214,0.0033649188,-0.0380786,-0.017181674,-0.021946449,-0.023872385,-0.011681408,-0.08471088,-0.033752106,-0.00638682,-0.018538916,-0.01361962,-0.06790988,-0.046546143,0.0662945,-0.051700287,-0.03479094,-0.04818026,-0.03332068,-0.073634416,-0.010197798,-0.039684083,0.082939096,0.08202799,-0.05804056,-0.014463033,-0.010682115,0.031340793,-0.05323668,0.050145783,0.069414966,-0.018995842,-0.033950604,-0.030677194,-0.036586598,-0.028750196,-0.02261313,-0.03187152,-0.015894465,0.029491544,-0.0070791524,-0.0951415,0.18913314,0.01069861,0.06438261,-0.022349127,-0.041978903,0.11530146,-0.040998846,0.025523115,-0.059798248,-0.08225612,-0.09467243,-0.031687587,0.057845265,-0.00257126,-0.049090885,0.000890497,-0.05765605,-0.058816493,-0.003179459,-0.015995482,-0.030146172,-0.029279929,-0.043524764,-0.012363629,0.068372086,-0.02706667,0.0070512528,-0.037873752,-0.0010535233,0.1814147,-0.023937937,-0.032218747,-0.039793197,-0.06761895,-0.034469556,0.0183955,-0.024341233,0.065359384,-0.037581027,0.11611399,-0.021329124,-0.0942999,-0.024632521,-0.034394763,-0.03398713,-0.009717448,0.13997912,-0.041526362,-0.031969335,-0.041235093,-0.06811272,-0.04942517,-0.04181114,-0.092958614,-0.006055407,-0.010122575,-0.011545399,-0.018512348,0.13669756,-0.036186166,-0.038802862,-0.02852295,-0.004150623,-0.0762009,-0.02830477,0.033290114,0.1099721,-0.008398553,-0.05406838,0.01134311,-0.0375291,-0.04131603,-0.02666996,0.03251299,-0.009980998,-0.040293552,-0.035296574,-0.030100916,0.16648297,-0.0024125106,0.04988893,0.15954368,0.04530037,-0.041748114,-0.060904767,-0.012919065,-0.010241171,-0.024125762,-0.038122963,-0.030015621,-0.041706752,-0.022478702,-0.045734808,-0.039426763,-0.025052333,0.09455569,-0.026274035,0.04461281,0.0633524,-0.05108831,-0.052188948,-0.04276671,-0.06047891,-0.038527574,-0.0012815222,-0.0056452863,-0.08129126,-0.037941445,0.13335648,-0.032539554,-0.057692192,-0.022210393,-0.036211595,-0.042699046,-0.073484406,-0.058944106,-0.032480072,0.014444745,-0.011951603,0.09127697,-0.01091935
tensor(25),-0.012087764,-0.0050031804,0.16482721,-0.020735038,-0.04112176,0.02208599,-0.02060885,0.050357897,-0.027614692,0.043805398,-0.048042044,0.13101317,-0.047849424,-0.024589103,0.066404834,-0.064079896,0.0008302331,0.025416777,-0.019018754,-0.024976138,-0.0015622699,-0.06386253,-0.024300423,-0.026994709,0.08959341,-0.0443672,-0.026989141,-0.03334743,-0.03443315,-0.03239446,0.069917366,0.09478561,0.050727293,-0.01908277,0.07291266,0.06830078,-0.079776004,0.06576562,-0.020967247,-0.0545366,-0.03256875,-0.022639245,0.20692298,0.0148398895,-0.074625835,-0.019340523,-0.03604645,-0.029443651,0.06959305,0.068715766,-0.07386213,-0.038368046,-0.023040129,-0.08342238,-0.045914907,-0.053474095,0.0058507975,-0.025743129,-0.009200454,-0.012789775,0.13182685,-0.024075797,-0.08184771,-0.058270015,0.12581867,0.17457294,-0.020543301,-0.03795331,0.009005198,-0.075508885,-0.07692537,-0.036721572,-0.023457002,-0.035568025,-0.039900675,-0.031537704,0.09844369,-0.080252305,-0.05536913,0.09451316,-0.033191644,-0.057702977,-0.020993961,-0.034122027,-0.058694065,-0.038625717,-0.044832572,-0.05669354,-0.046939462,-0.029490165,-0.0049957,-0.024162937,-0.009606252,0.061130866,0.003341375,-0.038084213,-0.017189251,-0.021942094,-0.023873968,-0.011683729,-0.08471613,-0.03375323,-0.0064039603,-0.018535737,-0.013614022,-0.06791054,-0.046540055,0.06629297,-0.05169463,-0.0348089,-0.0481802,-0.03331152,-0.073640734,-0.010203001,-0.03967675,0.08294657,0.08202304,-0.05804137,-0.01445413,-0.010675845,0.031331036,-0.053250216,0.050165333,0.06941785,-0.019023152,-0.03394612,-0.030691614,-0.036594786,-0.028737884,-0.022630006,-0.031856973,-0.015892377,0.029498035,-0.0070862994,-0.095160075,0.18914703,0.010702144,0.064385824,-0.022368005,-0.041970044,0.115302324,-0.041000985,0.025502922,-0.059803016,-0.082247704,-0.09468044,-0.031700946,0.057829726,-0.0025941096,-0.049096875,0.00087795034,-0.057654567,-0.058817886,-0.0031799786,-0.015983868,-0.03014788,-0.029278412,-0.04353086,-0.0123834945,0.06838441,-0.027058715,0.007064403,-0.037877303,-0.0010707639,0.18143658,-0.023947753,-0.03222151,-0.039786555,-0.067624584,-0.034471214,0.01838607,-0.024352375,0.065378845,-0.037590943,0.11611347,-0.021314953,-0.09429569,-0.024646327,-0.0343841,-0.034005348,-0.00972034,0.14001676,-0.041530408,-0.031974025,-0.04123335,-0.0681209,-0.049425572,-0.04181301,-0.09296034,-0.0060723517,-0.010144534,-0.01155355,-0.018513665,0.13672197,-0.03617825,-0.038804445,-0.028525416,-0.0041600703,-0.07619789,-0.028305914,0.03328055,0.109973006,-0.008387441,-0.054071315,0.011325354,-0.037533946,-0.041310273,-0.026670532,0.032502636,-0.00997048,-0.04030286,-0.03531791,-0.03011633,0.16650988,-0.002412391,0.04990304,0.15957801,0.045311455,-0.041752346,-0.060902692,-0.012927111,-0.010231603,-0.024128582,-0.038115114,-0.03002684,-0.041703884,-0.022486113,-0.045761995,-0.039441913,-0.025068924,0.09455697,-0.026257075,0.04462229,0.06336036,-0.051100936,-0.0521819,-0.042769168,-0.060477745,-0.03853133,-0.0013032705,-0.005644219,-0.08130231,-0.037939675,0.13336818,-0.032533154,-0.0577,-0.022210784,-0.03621904,-0.042718146,-0.07349654,-0.058941185,-0.032466754,0.014441024,-0.011944546,0.09128985,-0.010940098
tensor(26),-0.012119046,-0.0049748006,0.1647155,-0.020722687,-0.041134484,0.022093754,-0.020595089,0.050359175,-0.027655208,0.0438506,-0.047979854,0.13093491,-0.04785142,-0.024545077,0.06644822,-0.06409303,0.0008357018,0.025432914,-0.019051189,-0.024953099,-0.0015758872,-0.063865244,-0.024271805,-0.026973583,0.08959155,-0.044362556,-0.026966834,-0.033382062,-0.034417626,-0.032328762,0.069895044,0.09476734,0.05066498,-0.019090543,0.07293844,0.068307444,-0.07976775,0.065783784,-0.020951742,-0.05452897,-0.032578707,-0.022631131,0.2067864,0.014875103,-0.07462579,-0.019339208,-0.036069512,-0.029457109,0.069606975,0.06872684,-0.07386191,-0.038274728,-0.02305236,-0.083387785,-0.045862023,-0.053454034,0.005831249,-0.025703391,-0.009220954,-0.012766637,0.13184762,-0.024089037,-0.08179353,-0.05823132,0.12579533,0.1744756,-0.0205042,-0.037978858,0.008996509,-0.07550606,-0.07692738,-0.036718868,-0.023473497,-0.0355723,-0.039869614,-0.031528894,0.098407455,-0.08020092,-0.055363875,0.09447802,-0.0331899,-0.057728022,-0.021011807,-0.034074873,-0.058697134,-0.038628332,-0.044834126,-0.056704335,-0.04690214,-0.029433884,-0.005005803,-0.02416458,-0.009611496,0.06110145,0.0034128837,-0.038066722,-0.017166292,-0.021955276,-0.023869362,-0.011676928,-0.08470033,-0.033750385,-0.006351525,-0.018545477,-0.0136312805,-0.067908496,-0.046558805,0.06629785,-0.051711723,-0.03475421,-0.04818072,-0.033339452,-0.07362154,-0.01018691,-0.039699316,0.08292378,0.08203855,-0.0580389,-0.014481265,-0.010694705,0.031360865,-0.05320864,0.050105713,0.06940929,-0.018939791,-0.033959992,-0.030647678,-0.036569968,-0.028775737,-0.02257825,-0.031901404,-0.015898757,0.029478293,-0.007064609,-0.095103145,0.18910503,0.010691176,0.06437641,-0.022310596,-0.04199753,0.1152996,-0.04099452,0.025564902,-0.059788447,-0.08227333,-0.09465608,-0.031660486,0.05787751,-0.0025242586,-0.049078565,0.0009163403,-0.057658963,-0.058813337,-0.0031783143,-0.016019385,-0.03014276,-0.029283177,-0.043512307,-0.012323044,0.06834662,-0.027082816,0.0070242947,-0.03786647,-0.00101812,0.18137029,-0.02391782,-0.032213237,-0.039806835,-0.06760743,-0.03446648,0.018414881,-0.024318602,0.06531974,-0.037560266,0.11611545,-0.02135837,-0.09430859,-0.024604287,-0.034416676,-0.033950046,-0.009711099,0.13990179,-0.04151814,-0.03195992,-0.04123879,-0.06809631,-0.049424753,-0.04180734,-0.09295523,-0.0060207266,-0.010077383,-0.01152849,-0.01850963,0.13664772,-0.036202148,-0.03879953,-0.028518127,-0.0041312505,-0.076207414,-0.028302215,0.03330967,0.1099705,-0.008421142,-0.054062393,0.011379865,-0.037519105,-0.041327897,-0.026668925,0.032534067,-0.010002371,-0.040274397,-0.035253245,-0.030069482,0.16642801,-0.0024126384,0.049859807,0.15947323,0.04527747,-0.04173948,-0.060908936,-0.012902487,-0.010260825,-0.02411984,-0.03813905,-0.02999242,-0.041712563,-0.02246339,-0.04567929,-0.039395727,-0.025017966,0.09455311,-0.026308957,0.044593535,0.063336186,-0.051062383,-0.0522035,-0.042761836,-0.0604816,-0.038519885,-0.0012367163,-0.005647771,-0.08126855,-0.037945345,0.13333274,-0.032552525,-0.057676237,-0.02220965,-0.036196154,-0.042659834,-0.07345958,-0.058950137,-0.03250739,0.0144525105,-0.011966043,0.09125033,-0.010876703
tensor(27),-0.012097362,-0.0049945964,0.16479322,-0.020731257,-0.041125577,0.022088349,-0.02060463,0.050358307,-0.027626975,0.04381916,-0.048023265,0.1309894,-0.047850095,-0.024575785,0.066417955,-0.064083844,0.0008319435,0.025421761,-0.019028567,-0.024969159,-0.0015663495,-0.06386338,-0.024291754,-0.026988328,0.0895928,-0.044365823,-0.02698241,-0.033357974,-0.034428447,-0.03237445,0.06991055,0.09477996,0.050708346,-0.019085096,0.07292041,0.068302765,-0.079773374,0.0657711,-0.020962484,-0.054534342,-0.032571767,-0.02263679,0.2068815,0.014850566,-0.07462582,-0.019340087,-0.0360535,-0.029447772,0.069597185,0.068719074,-0.07386202,-0.038339723,-0.023043822,-0.083411805,-0.045898825,-0.053468004,0.0058448724,-0.025731029,-0.009206746,-0.012782723,0.13183315,-0.024079701,-0.08183113,-0.0582583,0.12581146,0.17454332,-0.02053152,-0.037961043,0.009002691,-0.07550798,-0.0769259,-0.036720693,-0.02346199,-0.035569355,-0.039891187,-0.03153499,0.098432735,-0.08023658,-0.05536762,0.094502464,-0.03319113,-0.057710588,-0.020999486,-0.03410758,-0.058694944,-0.038626462,-0.044833034,-0.05669679,-0.046928182,-0.029473105,-0.0049987324,-0.024163377,-0.009607869,0.06112192,0.003363192,-0.038079012,-0.017182233,-0.021946128,-0.023872504,-0.011681579,-0.08471127,-0.033752184,-0.0063880812,-0.018538686,-0.013619212,-0.06790993,-0.0465457,0.06629438,-0.051699877,-0.034792252,-0.048180252,-0.03332001,-0.073634885,-0.010198182,-0.039683543,0.08293965,0.08202762,-0.05804062,-0.014462375,-0.010681656,0.031340074,-0.05323767,0.05014722,0.069415174,-0.018997842,-0.033950273,-0.030678244,-0.0365872,-0.02874929,-0.022614373,-0.031870455,-0.015894312,0.029492017,-0.007079672,-0.09514286,0.18913415,0.010698868,0.064382836,-0.022350514,-0.04197825,0.11530152,-0.040999,0.025521634,-0.0597986,-0.082255505,-0.09467301,-0.031688567,0.057844125,-0.0025729355,-0.049091328,0.000889577,-0.05765594,-0.058816593,-0.0031795013,-0.01599463,-0.030146295,-0.029279817,-0.04352521,-0.012365088,0.06837299,-0.027066087,0.0070522157,-0.03787402,-0.0010547936,0.1814163,-0.023938658,-0.032218948,-0.039792713,-0.06761936,-0.03446968,0.018394805,-0.024342045,0.0653608,-0.03758176,0.116113946,-0.021328084,-0.0942996,-0.024633532,-0.034393985,-0.03398846,-0.009717656,0.1399819,-0.04152666,-0.03196968,-0.041234966,-0.06811333,-0.0494252,-0.041811273,-0.09295875,-0.0060566533,-0.010124186,-0.011546001,-0.01851244,0.13669933,-0.036185585,-0.038802978,-0.028523132,-0.004151313,-0.07620068,-0.028304854,0.03328941,0.109972164,-0.008397735,-0.0540686,0.011341806,-0.03752946,-0.041315608,-0.026670001,0.032512233,-0.009980226,-0.040294237,-0.03529814,-0.030102048,0.16648495,-0.0024125045,0.04988997,0.1595462,0.045301184,-0.04174842,-0.06090461,-0.012919653,-0.010240469,-0.024125967,-0.038122386,-0.030016445,-0.041706543,-0.022479244,-0.045736805,-0.03942787,-0.025053546,0.09455578,-0.02627279,0.044613503,0.06335299,-0.051089235,-0.052188434,-0.042766895,-0.060478825,-0.038527846,-0.0012831148,-0.005645208,-0.08129206,-0.03794131,0.13335735,-0.032539085,-0.057692766,-0.022210421,-0.036212135,-0.04270045,-0.0734853,-0.058943894,-0.032479096,0.01444447,-0.011951081,0.09127791,-0.010920872
tensor(28),-0.012114051,-0.004979576,0.16473383,-0.02072469,-0.04113233,0.02209249,-0.020597264,0.050359003,-0.02764843,0.043843158,-0.04799029,0.13094786,-0.04785121,-0.024552438,0.06644097,-0.06409082,0.00083486596,0.025430387,-0.019045778,-0.02495693,-0.0015735403,-0.06386485,-0.024276577,-0.026977144,0.089591764,-0.0443634,-0.02697062,-0.03337641,-0.03442025,-0.032339517,0.06989866,0.09477021,0.0506752,-0.019089183,0.072934054,0.06830628,-0.079768926,0.06578076,-0.020954235,-0.05453036,-0.032577004,-0.022632498,0.20680892,0.01486926,-0.074625805,-0.01933936,-0.03606581,-0.029454943,0.06960456,0.068724886,-0.0738619,-0.038290158,-0.023050295,-0.08339341,-0.045870747,-0.053457364,0.0058344845,-0.02570987,-0.009217661,-0.012770433,0.13184418,-0.024086641,-0.0818023,-0.0582378,0.125799,0.17449158,-0.020510828,-0.03797459,0.0089982,-0.07550645,-0.07692693,-0.036719214,-0.023470724,-0.035571672,-0.039874665,-0.03153026,0.09841348,-0.08020917,-0.055364847,0.09448378,-0.033190213,-0.057723902,-0.021009043,-0.03408245,-0.058696516,-0.03862776,-0.044833835,-0.05670251,-0.046908356,-0.029443271,-0.0050040763,-0.024164189,-0.009610657,0.061106324,0.0034012292,-0.038069814,-0.017169999,-0.021953207,-0.023869969,-0.011677913,-0.08470283,-0.033750527,-0.0063602515,-0.01854389,-0.013628342,-0.06790887,-0.0465556,0.066296905,-0.051708996,-0.034763213,-0.048180472,-0.033334844,-0.07362467,-0.0101896785,-0.03969551,0.082927525,0.08203576,-0.058039285,-0.014476821,-0.010691727,0.03135589,-0.053215705,0.050115556,0.06941059,-0.018953586,-0.033957567,-0.030654931,-0.03657399,-0.028769288,-0.02258693,-0.031894024,-0.015897723,0.029481519,-0.0070681022,-0.09511266,0.18911177,0.010693083,0.06437777,-0.022319954,-0.041992757,0.115300134,-0.04099556,0.025554437,-0.059790835,-0.08226914,-0.09466006,-0.03166702,0.057869416,-0.0025358554,-0.049081624,0.0009099706,-0.057658304,-0.058814228,-0.0031786459,-0.016013484,-0.030143581,-0.02928232,-0.04351537,-0.012332999,0.06835295,-0.027078956,0.0070309136,-0.037868246,-0.0010268167,0.18138099,-0.023922745,-0.032214534,-0.039803475,-0.06761025,-0.03446708,0.01841011,-0.024324011,0.06532937,-0.03756555,0.1161149,-0.021351114,-0.09430643,-0.024611186,-0.03441125,-0.033959016,-0.009712849,0.13992086,-0.041520122,-0.031962167,-0.0412378,-0.0681002,-0.04942464,-0.041808277,-0.092956,-0.006029252,-0.01008855,-0.011532698,-0.01851032,0.13665985,-0.036198348,-0.03880039,-0.028519217,-0.0041360003,-0.076205656,-0.028302947,0.03330485,0.10997076,-0.008415697,-0.05406386,0.011370705,-0.03752154,-0.04132497,-0.026669113,0.032528967,-0.009997226,-0.040279098,-0.035263676,-0.030077081,0.16644141,-0.0024126186,0.04986704,0.15949054,0.04528317,-0.04174158,-0.060907945,-0.012906551,-0.010255993,-0.024121387,-0.03813511,-0.0299982,-0.041711193,-0.022467202,-0.045692865,-0.03940335,-0.025026577,0.09455371,-0.026300281,0.044598214,0.06334014,-0.051068753,-0.052199904,-0.04276297,-0.060480848,-0.038521755,-0.0012478065,-0.0056470186,-0.08127411,-0.037944254,0.13333844,-0.032549404,-0.05768016,-0.022209853,-0.036200047,-0.042669516,-0.07346564,-0.05894863,-0.032500654,0.01445054,-0.011962483,0.091256976,-0.010887261
tensor(29),-0.012102783,-0.0049897595,0.16477403,-0.020729134,-0.04112775,0.022089694,-0.020602245,0.05035853,-0.027633896,0.043826923,-0.048012644,0.13097599,-0.047850482,-0.024568256,0.06642536,-0.06408609,0.0008329111,0.02542457,-0.019034121,-0.024965223,-0.0015686606,-0.06386387,-0.024286862,-0.026984733,0.08959244,-0.04436505,-0.026978614,-0.03336393,-0.034425803,-0.03236316,0.0699067,0.09477679,0.050697647,-0.01908641,0.0729248,0.06830389,-0.0797719,0.06577421,-0.020959802,-0.054533083,-0.032573465,-0.022635408,0.20685807,0.014856593,-0.07462582,-0.01933984,-0.036057495,-0.029450096,0.06959954,0.06872094,-0.07386198,-0.03832373,-0.023045901,-0.083405845,-0.045889746,-0.05346457,0.0058415243,-0.025724186,-0.009210292,-0.012778743,0.13183671,-0.024081914,-0.081821784,-0.058251694,0.1258074,0.1745266,-0.020524858,-0.03796541,0.009001274,-0.07550748,-0.07692622,-0.0367202,-0.023464803,-0.03557011,-0.039885852,-0.031533457,0.09842652,-0.0802277,-0.055366743,0.094496414,-0.03319084,-0.057714894,-0.021002598,-0.034099422,-0.058695443,-0.038626857,-0.04483328,-0.056698635,-0.046921793,-0.029463489,-0.005000446,-0.024163626,-0.0096087735,0.06111688,0.0033755004,-0.038076077,-0.01717827,-0.021948427,-0.023871662,-0.01168037,-0.08470853,-0.033751607,-0.0063790996,-0.018540366,-0.013622146,-0.0679096,-0.04654888,0.06629518,-0.051702835,-0.034782875,-0.048180297,-0.033324804,-0.073631585,-0.010195456,-0.039687395,0.08293574,0.08203022,-0.058040187,-0.014467041,-0.010684932,0.031345174,-0.053230606,0.050137,0.06941368,-0.018983556,-0.033952616,-0.030670708,-0.036582917,-0.028755715,-0.022605533,-0.03187807,-0.015895417,0.029488625,-0.0070759384,-0.09513314,0.18912691,0.01069702,0.06438118,-0.02234063,-0.041982893,0.11530107,-0.040997885,0.025532192,-0.05979609,-0.082259916,-0.09466882,-0.031681582,0.05785226,-0.0025609648,-0.049088202,0.0008961491,-0.057656705,-0.05881586,-0.0031792298,-0.016000714,-0.03014541,-0.029280614,-0.043522034,-0.012354713,0.06836653,-0.027070254,0.0070453323,-0.037872158,-0.001045771,0.18140486,-0.023933508,-0.03221751,-0.039796192,-0.06761642,-0.03446881,0.018399738,-0.0243362,0.06535064,-0.03757656,0.11611423,-0.02133551,-0.094301805,-0.024626303,-0.03439955,-0.03397894,-0.00971614,0.1399622,-0.041524548,-0.03196723,-0.041235868,-0.068109065,-0.049424987,-0.041810308,-0.092957854,-0.0060477927,-0.01011269,-0.011541715,-0.018511754,0.13668656,-0.03618973,-0.038802154,-0.02852185,-0.004146363,-0.076202266,-0.028304262,0.033294406,0.1099717,-0.008403549,-0.05406707,0.01135111,-0.0375269,-0.04131862,-0.026669707,0.032517638,-0.009985734,-0.040289357,-0.035286974,-0.030093972,0.16647087,-0.0024125432,0.049882576,0.15952824,0.045295376,-0.041746207,-0.060905695,-0.012915429,-0.01024548,-0.0241245,-0.038126502,-0.030010572,-0.04170804,-0.022475364,-0.045722585,-0.039419957,-0.025044868,0.09455511,-0.026281655,0.04460855,0.06334882,-0.051082622,-0.05219213,-0.042765602,-0.06047945,-0.038525876,-0.0012717266,-0.0056457613,-0.081286274,-0.03794223,0.1333512,-0.032542434,-0.057688694,-0.022210235,-0.03620823,-0.04269047,-0.07347895,-0.058945417,-0.032486055,0.014446412,-0.011954761,0.09127118,-0.0109100295
tensor(30),-0.012094746,-0.0049969265,0.16480246,-0.020732287,-0.041124534,0.022087708,-0.020605776,0.050358184,-0.027623644,0.043815427,-0.048028365,0.13099587,-0.04784991,-0.02457941,0.066414386,-0.06408277,0.00083147315,0.025420409,-0.019025896,-0.024971051,-0.0015652422,-0.06386316,-0.02429411,-0.02699006,0.08959296,-0.044366196,-0.02698424,-0.033355102,-0.034429718,-0.0323799,0.069912404,0.09478149,0.050713502,-0.019084467,0.07291831,0.06830223,-0.0797741,0.065769605,-0.02096378,-0.05453496,-0.032570947,-0.022637457,0.20689279,0.014847666,-0.07462583,-0.019340195,-0.036051583,-0.029446658,0.06959605,0.06871818,-0.073862046,-0.03834743,-0.02304282,-0.083414674,-0.0459032,-0.053469658,0.0058464883,-0.02573433,-0.009205036,-0.012784638,0.13183144,-0.024078635,-0.08183563,-0.058261484,0.12581342,0.17455137,-0.02053472,-0.037958946,0.009003367,-0.07550822,-0.076925755,-0.03672094,-0.023460628,-0.03556899,-0.039893765,-0.031535726,0.098435715,-0.08024085,-0.055368036,0.09450537,-0.03319127,-0.057708524,-0.020997986,-0.03411151,-0.0586947,-0.03862626,-0.04483291,-0.05669591,-0.046931252,-0.029477749,-0.004997909,-0.024163261,-0.009607431,0.061124347,0.0033572651,-0.038080428,-0.01718414,-0.021945033,-0.023872906,-0.011682166,-0.084712595,-0.03375247,-0.0063924026,-0.018537879,-0.013617806,-0.06791009,-0.046544164,0.066294,-0.051698446,-0.03479678,-0.048180237,-0.0333177,-0.07363647,-0.010199491,-0.03968169,0.08294153,0.08202638,-0.058040828,-0.014460132,-0.01068008,0.031337615,-0.053241074,0.050152153,0.069415905,-0.019004727,-0.033949144,-0.030681876,-0.036589265,-0.028746191,-0.022618629,-0.031866796,-0.015893783,0.02949365,-0.007081477,-0.09514754,0.18913765,0.010699759,0.06438365,-0.022355275,-0.041976016,0.115301736,-0.04099954,0.025516545,-0.059799798,-0.08225338,-0.094675034,-0.031691927,0.057840206,-0.002578693,-0.049092837,0.0008864084,-0.057655565,-0.058816954,-0.0031796265,-0.015991699,-0.030146722,-0.029279437,-0.043526754,-0.012370091,0.068376094,-0.027064083,0.0070555303,-0.037874926,-0.0010591354,0.18142182,-0.02394113,-0.03221964,-0.039791036,-0.06762078,-0.034470093,0.018392432,-0.024344858,0.0653657,-0.037584256,0.11611382,-0.021324513,-0.094298534,-0.024637012,-0.0343913,-0.033993058,-0.009718383,0.13999137,-0.041527677,-0.031970862,-0.04123453,-0.06811538,-0.049425308,-0.041811746,-0.09295918,-0.0060609262,-0.010129718,-0.011548055,-0.018512776,0.13670549,-0.03618359,-0.038803376,-0.02852375,-0.004153689,-0.07619992,-0.028305147,0.033286996,0.1099724,-0.008394928,-0.054069333,0.011337338,-0.037530687,-0.041314155,-0.026670152,0.03250962,-0.009977571,-0.04029658,-0.035303514,-0.03010593,0.16649172,-0.0024124738,0.049893524,0.15955485,0.04530397,-0.041749485,-0.060904093,-0.01292168,-0.0102380635,-0.024126677,-0.038120408,-0.030019276,-0.041705824,-0.022481108,-0.045743644,-0.039431687,-0.025057727,0.09455611,-0.026268516,0.044615887,0.06335499,-0.051092423,-0.052186657,-0.042767514,-0.06047853,-0.038528793,-0.001288591,-0.005644938,-0.08129485,-0.037940864,0.1333603,-0.032537475,-0.057694733,-0.022210522,-0.03621401,-0.04270526,-0.073488355,-0.05894316,-0.03247574,0.014443536,-0.011949308,0.09128115,-0.010926099
tensor(31),-0.012090613,-0.0050006253,0.1648171,-0.020733917,-0.04112289,0.022086693,-0.020607598,0.05035802,-0.027618347,0.043809496,-0.048036456,0.1310061,-0.04784962,-0.024585139,0.06640874,-0.064081065,0.00083074206,0.025418263,-0.019021668,-0.024974061,-0.0015634852,-0.06386279,-0.02429784,-0.026992802,0.08959323,-0.04436679,-0.026987141,-0.03335057,-0.034431748,-0.032388516,0.06991534,0.094783925,0.05072166,-0.019083466,0.07291497,0.06830138,-0.07977523,0.06576724,-0.020965833,-0.05453593,-0.03256965,-0.022638515,0.20691064,0.014843069,-0.074625835,-0.019340392,-0.036048546,-0.029444875,0.06959428,0.06871675,-0.07386209,-0.03835963,-0.023041226,-0.08341923,-0.04591012,-0.05347228,0.0058490345,-0.02573953,-0.009202328,-0.012787671,0.13182873,-0.02407696,-0.08184277,-0.058266528,0.12581654,0.17456412,-0.020539792,-0.037955616,0.009004448,-0.07550862,-0.076925516,-0.03672132,-0.023458486,-0.03556842,-0.039897855,-0.031536896,0.09844043,-0.080247626,-0.055368684,0.09450999,-0.033191495,-0.057705242,-0.020995608,-0.034117736,-0.058694318,-0.03862594,-0.044832706,-0.056694508,-0.04693611,-0.029485095,-0.0049966015,-0.024163067,-0.009606734,0.061128203,0.0033478588,-0.038082663,-0.017187169,-0.021943294,-0.023873532,-0.01168309,-0.08471468,-0.033752926,-0.0063992366,-0.018536612,-0.013615569,-0.06791036,-0.046541736,0.06629339,-0.05169619,-0.034803953,-0.048180215,-0.03331404,-0.073639,-0.010201566,-0.039678767,0.08294451,0.08202441,-0.058041148,-0.014456585,-0.010677576,0.031333722,-0.053246476,0.050159954,0.06941706,-0.01901563,-0.033947356,-0.030687636,-0.036592536,-0.02874128,-0.022625357,-0.031860992,-0.015892953,0.029496247,-0.0070843305,-0.095154956,0.18914321,0.010701172,0.06438494,-0.022362802,-0.041972492,0.115302086,-0.0410004,0.025508486,-0.059801705,-0.08225003,-0.09467824,-0.031697262,0.057834007,-0.0025878092,-0.049095225,0.00088140345,-0.057654977,-0.05881751,-0.0031798286,-0.015987065,-0.030147407,-0.029278833,-0.043529183,-0.0123780165,0.06838101,-0.027060905,0.0070607765,-0.03787633,-0.0010660179,0.18143055,-0.023945048,-0.032220736,-0.03978838,-0.067623034,-0.034470763,0.018388666,-0.024349306,0.06537348,-0.037588205,0.11611362,-0.02131886,-0.09429684,-0.02464252,-0.034387045,-0.034000326,-0.009719536,0.1400064,-0.041529294,-0.031972736,-0.04123383,-0.06811865,-0.049425468,-0.041812487,-0.092959866,-0.0060676765,-0.010138482,-0.011551304,-0.018513305,0.13671523,-0.03618043,-0.03880401,-0.028524738,-0.0041574626,-0.07619871,-0.028305598,0.03328318,0.10997275,-0.0083904965,-0.054070503,0.011330252,-0.037532616,-0.04131186,-0.026670378,0.03250549,-0.009973373,-0.04030029,-0.035312027,-0.03011208,0.16650246,-0.0024124235,0.049899153,0.15956855,0.045308396,-0.041751176,-0.06090327,-0.012924891,-0.010234247,-0.024127804,-0.03811728,-0.03002375,-0.04170468,-0.02248407,-0.0457545,-0.039437734,-0.02506435,0.09455662,-0.026261745,0.044619676,0.06335817,-0.051097456,-0.05218384,-0.04276849,-0.06047807,-0.03853029,-0.0012972746,-0.005644515,-0.08129926,-0.037940167,0.13336496,-0.03253492,-0.05769785,-0.022210678,-0.03621698,-0.042712886,-0.0734932,-0.058941994,-0.03247042,0.014442053,-0.011946496,0.091286294,-0.010934382
